{"learner":{"attributes":{"scikit_learn":"{\"_estimator_type\": \"classifier\"}"},"feature_names":[],"feature_types":[],"gradient_booster":{"model":{"gbtree_model_param":{"num_parallel_tree":"1","num_trees":"200"},"iteration_indptr":[0,1,2,3,4,5,6,7,8,9,10,11,12,13,14,15,16,17,18,19,20,21,22,23,24,25,26,27,28,29,30,31,32,33,34,35,36,37,38,39,40,41,42,43,44,45,46,47,48,49,50,51,52,53,54,55,56,57,58,59,60,61,62,63,64,65,66,67,68,69,70,71,72,73,74,75,76,77,78,79,80,81,82,83,84,85,86,87,88,89,90,91,92,93,94,95,96,97,98,99,100,101,102,103,104,105,106,107,108,109,110,111,112,113,114,115,116,117,118,119,120,121,122,123,124,125,126,127,128,129,130,131,132,133,134,135,136,137,138,139,140,141,142,143,144,145,146,147,148,149,150,151,152,153,154,155,156,157,158,159,160,161,162,163,164,165,166,167,168,169,170,171,172,173,174,175,176,177,178,179,180,181,182,183,184,185,186,187,188,189,190,191,192,193,194,195,196,197,198,199,200],"tree_info":[0,0,0,0,0,0,0,0,0,0,0,0,0,0,0,0,0,0,0,0,0,0,0,0,0,0,0,0,0,0,0,0,0,0,0,0,0,0,0,0,0,0,0,0,0,0,0,0,0,0,0,0,0,0,0,0,0,0,0,0,0,0,0,0,0,0,0,0,0,0,0,0,0,0,0,0,0,0,0,0,0,0,0,0,0,0,0,0,0,0,0,0,0,0,0,0,0,0,0,0,0,0,0,0,0,0,0,0,0,0,0,0,0,0,0,0,0,0,0,0,0,0,0,0,0,0,0,0,0,0,0,0,0,0,0,0,0,0,0,0,0,0,0,0,0,0,0,0,0,0,0,0,0,0,0,0,0,0,0,0,0,0,0,0,0,0,0,0,0,0,0,0,0,0,0,0,0,0,0,0,0,0,0,0,0,0,0,0,0,0,0,0,0,0,0,0,0,0,0,0],"trees":[{"base_weights":[2.1934004E-6,7.625611E-1,-8.108002E-1,-6.0305816E-1,1.5752038E0,-9.8412895E-1,1.6831741E0,8.2440645E-1,-1.0543233E0,1.7811605E0,-3.3164856E-1,-1.1558453E0,-4.3188933E-1,2.2772539E-1,9.389642E-2,-8.458851E-2,6.442833E-2,-7.4586704E-2,-1.2012135E-2,4.2719364E-2,9.520349E-2,5.082604E-2,-6.981853E-2,-5.9820104E-2,3.4756966E-2,1.754129E-2,-5.5656236E-2,-5.6388874E-2,6.26986E-2],"categories":[],"categories_nodes":[],"categories_segments":[],"categories_sizes":[],"default_left":[0,0,0,0,0,0,0,0,0,0,0,0,0,0,0,0,0,0,0,0,0,0,0,0,0,0,0,0,0],"id":0,"left_children":[1,3,5,7,9,11,13,15,17,19,21,23,25,27,-1,-1,-1,-1,-1,-1,-1,-1,-1,-1,-1,-1,-1,-1,-1],"loss_changes":[4.6871082E2,4.344931E2,1.6048337E2,9.521863E1,9.688629E1,3.2138306E1,6.444664E0,4.392372E1,3.942569E1,2.359845E1,3.6938675E1,2.0495667E1,4.4770817E1,6.9775996E0,0E0,0E0,0E0,0E0,0E0,0E0,0E0,0E0,0E0,0E0,0E0,0E0,0E0,0E0,0E0],"parents":[2147483647,0,0,1,1,2,2,3,3,4,4,5,5,6,6,7,7,8,8,9,9,10,10,11,11,12,12,13,13],"right_children":[2,4,6,8,10,12,14,16,18,20,22,24,26,28,-1,-1,-1,-1,-1,-1,-1,-1,-1,-1,-1,-1,-1,-1,-1],"split_conditions":[-1.5857168E-2,4.5695227E-1,7.932044E-1,-2.0038457E-1,9.005917E-2,4.7831094E-1,-1.5711458E-2,3.0610877E-1,3.0771497E-1,6.308913E-1,-1.928525E-1,3.2084197E-1,5.2301747E-1,-2.914539E-1,9.389642E-2,-8.458851E-2,6.442833E-2,-7.4586704E-2,-1.2012135E-2,4.2719364E-2,9.520349E-2,5.082604E-2,-6.981853E-2,-5.9820104E-2,3.4756966E-2,1.754129E-2,-5.5656236E-2,-5.6388874E-2,6.26986E-2],"split_indices":[27,49,49,49,28,45,47,44,46,44,40,48,45,28,0,0,0,0,0,0,0,0,0,0,0,0,0,0,0],"split_type":[0,0,0,0,0,0,0,0,0,0,0,0,0,0,0,0,0,0,0,0,0,0,0,0,0,0,0,0,0],"sum_hessian":[7.560827E2,3.8966376E2,3.664189E2,1.454678E2,2.4419595E2,3.4317404E2,2.3244856E1,3.474231E1,1.10725494E2,2.2045122E2,2.3744745E1,2.6094226E2,8.2231804E1,2.9993362E0,2.024552E1,4.9988937E0,2.9743418E1,7.148418E1,3.9241318E1,2.6744081E1,1.9370714E2,1.0497677E1,1.3247068E1,2.5569342E2,5.2488384E0,3.849148E1,4.374032E1,1.2497234E0,1.7496128E0],"tree_param":{"num_deleted":"0","num_feature":"51","num_nodes":"29","size_leaf_vector":"1"}},{"base_weights":[1.14380564E-4,7.2070026E-1,-7.768416E-1,-5.792584E-1,1.5037155E0,-9.4145006E-1,1.6051432E0,7.648649E-1,-9.998054E-1,1.6998929E0,-3.1603485E-1,-1.1082016E0,-4.1079956E-1,1.05353944E-1,8.973615E-2,-5.8659203E-2,6.582897E-2,-7.130363E-2,-1.0578557E-2,4.1247774E-2,9.084014E-2,-7.8222774E-2,3.7740484E-2,-5.73738E-2,3.3320658E-2,1.6692061E-2,-5.293243E-2,-5.4821093E-2,5.7301816E-2],"categories":[],"categories_nodes":[],"categories_segments":[],"categories_sizes":[],"default_left":[0,0,0,0,0,0,0,0,0,0,0,0,0,0,0,0,0,0,0,0,0,0,0,0,0,0,0,0,0],"id":1,"left_children":[1,3,5,7,9,11,13,15,17,19,21,23,25,27,-1,-1,-1,-1,-1,-1,-1,-1,-1,-1,-1,-1,-1,-1,-1],"loss_changes":[4.239042E2,4.007262E2,1.4436227E2,8.46452E1,8.815692E1,2.9754913E1,6.611904E0,3.996306E1,3.782087E1,2.1179565E1,3.423839E1,1.8829285E1,4.0500526E1,5.94226E0,0E0,0E0,0E0,0E0,0E0,0E0,0E0,0E0,0E0,0E0,0E0,0E0,0E0,0E0,0E0],"parents":[2147483647,0,0,1,1,2,2,3,3,4,4,5,5,6,6,7,7,8,8,9,9,10,10,11,11,12,12,13,13],"right_children":[2,4,6,8,10,12,14,16,18,20,22,24,26,28,-1,-1,-1,-1,-1,-1,-1,-1,-1,-1,-1,-1,-1,-1,-1],"split_conditions":[-1.5292932E-2,4.5695227E-1,7.932044E-1,-2.0038457E-1,9.005917E-2,4.7831094E-1,-1.5711458E-2,1.6714902E-1,3.0771497E-1,6.308913E-1,2.7565405E-1,3.2084197E-1,5.2301747E-1,-2.914539E-1,8.973615E-2,-5.8659203E-2,6.582897E-2,-7.130363E-2,-1.0578557E-2,4.1247774E-2,9.084014E-2,-7.8222774E-2,3.7740484E-2,-5.73738E-2,3.3320658E-2,1.6692061E-2,-5.293243E-2,-5.4821093E-2,5.7301816E-2],"split_indices":[27,49,49,49,28,45,47,46,46,44,46,48,45,28,0,0,0,0,0,0,0,0,0,0,0,0,0,0,0],"split_type":[0,0,0,0,0,0,0,0,0,0,0,0,0,0,0,0,0,0,0,0,0,0,0,0,0,0,0,0,0],"sum_hessian":[7.551564E2,3.9182846E2,3.633279E2,1.4739091E2,2.4443753E2,3.4040854E2,2.2919373E1,3.4930313E1,1.124606E2,2.2070987E2,2.372766E1,2.5818738E2,8.222114E1,2.7465777E0,2.0172796E1,7.490708E0,2.7439608E1,7.246386E1,3.9996742E1,2.696485E1,1.9374503E2,1.0742636E1,1.2985023E1,2.5294284E2,5.244542E0,3.847848E1,4.374266E1,1.2497783E0,1.4967995E0],"tree_param":{"num_deleted":"0","num_feature":"51","num_nodes":"29","size_leaf_vector":"1"}},{"base_weights":[2.455489E-4,6.881817E-1,-7.3928523E-1,-5.5203E-1,1.438365E0,-8.959294E-1,1.5392106E0,7.293665E-1,-9.523088E-1,1.6270554E0,-3.0230725E-1,-1.2406284E0,-6.5465665E-1,1.00963E-1,8.6092226E-2,-7.882049E-2,5.7665486E-2,-2.1532288E-2,-7.888087E-2,8.384694E-2,-1.0480342E-2,4.815466E-2,-6.509162E-2,-5.1746216E-2,-9.0431035E-2,8.717908E-3,-5.1130828E-2,-5.3343195E-2,5.5702485E-2],"categories":[],"categories_nodes":[],"categories_segments":[],"categories_sizes":[],"default_left":[0,0,0,0,0,0,0,0,0,0,0,0,0,0,0,0,0,0,0,0,0,0,0,0,0,0,0,0,0],"id":2,"left_children":[1,3,5,7,9,11,13,15,17,19,21,23,25,27,-1,-1,-1,-1,-1,-1,-1,-1,-1,-1,-1,-1,-1,-1,-1],"loss_changes":[3.8389746E2,3.645114E2,1.3117326E2,7.663968E1,8.0589264E1,2.7539032E1,6.0674744E0,3.682242E1,3.6264786E1,2.052356E1,3.248581E1,1.43975525E1,6.199569E1,5.6128383E0,0E0,0E0,0E0,0E0,0E0,0E0,0E0,0E0,0E0,0E0,0E0,0E0,0E0,0E0,0E0],"parents":[2147483647,0,0,1,1,2,2,3,3,4,4,5,5,6,6,7,7,8,8,9,9,10,10,11,11,12,12,13,13],"right_children":[2,4,6,8,10,12,14,16,18,20,22,24,26,28,-1,-1,-1,-1,-1,-1,-1,-1,-1,-1,-1,-1,-1,-1,-1],"split_conditions":[-1.5292932E-2,4.5695227E-1,7.932044E-1,-2.0038457E-1,9.005917E-2,6.1999595E-1,-1.5711458E-2,3.0610877E-1,-1.5711407E-1,1.7503647E-2,-1.928525E-1,4.6747074E-1,2.2178104E-2,-2.914539E-1,8.6092226E-2,-7.882049E-2,5.7665486E-2,-2.1532288E-2,-7.888087E-2,8.384694E-2,-1.0480342E-2,4.815466E-2,-6.509162E-2,-5.1746216E-2,-9.0431035E-2,8.717908E-3,-5.1130828E-2,-5.3343195E-2,5.5702485E-2],"split_indices":[27,49,49,49,28,49,47,44,1,47,40,46,27,28,0,0,0,0,0,0,0,0,0,0,0,0,0,0,0],"split_type":[0,0,0,0,0,0,0,0,0,0,0,0,0,0,0,0,0,0,0,0,0,0,0,0,0,0,0,0,0],"sum_hessian":[7.525896E2,3.8993164E2,3.6265796E2,1.4706544E2,2.4286618E2,3.398972E2,2.2760778E1,3.4809387E1,1.12256065E2,2.1917291E2,2.3693264E1,1.3824654E2,2.0165063E2,2.7395504E0,2.0021227E1,4.983933E0,2.9825453E1,6.2120663E1,5.01354E1,2.1346228E2,5.710635E0,1.0472063E1,1.3221201E1,1.0356244E2,3.46841E1,6.2150803E1,1.3949983E2,1.2479287E0,1.4916217E0],"tree_param":{"num_deleted":"0","num_feature":"51","num_nodes":"29","size_leaf_vector":"1"}},{"base_weights":[1.0868503E-4,6.5837467E-1,-7.046006E-1,-5.269325E-1,1.3797437E0,-8.537227E-1,1.4806527E0,5.2422976E-1,-9.7203815E-1,1.5618395E0,-2.887793E-1,-1.0083859E0,-3.631461E-1,9.6857205E-2,8.2875244E-2,5.421409E-2,-8.780429E-2,-7.388886E-2,-7.879877E-3,3.604312E-2,8.378809E-2,-7.328086E-2,3.5899755E-2,-6.273852E-2,-3.5828065E-2,-3.1290486E-2,6.8627454E-2,-5.1947452E-2,5.419872E-2],"categories":[],"categories_nodes":[],"categories_segments":[],"categories_sizes":[],"default_left":[0,0,0,0,0,0,0,0,0,0,0,0,0,0,0,0,0,0,0,0,0,0,0,0,0,0,0,0,0],"id":3,"left_children":[1,3,5,7,9,11,13,15,17,19,21,23,25,27,-1,-1,-1,-1,-1,-1,-1,-1,-1,-1,-1,-1,-1,-1,-1],"loss_changes":[3.483128E2,3.3267374E2,1.19436295E2,6.956976E1,7.3862366E1,2.5439056E1,5.598198E0,5.8809097E1,4.262256E1,1.9677673E1,3.0220655E1,1.765274E1,3.8738037E1,5.306625E0,0E0,0E0,0E0,0E0,0E0,0E0,0E0,0E0,0E0,0E0,0E0,0E0,0E0,0E0,0E0],"parents":[2147483647,0,0,1,1,2,2,3,3,4,4,5,5,6,6,7,7,8,8,9,9,10,10,11,11,12,12,13,13],"right_children":[2,4,6,8,10,12,14,16,18,20,22,24,26,28,-1,-1,-1,-1,-1,-1,-1,-1,-1,-1,-1,-1,-1,-1,-1],"split_conditions":[-1.5292932E-2,4.5695227E-1,7.932044E-1,-1.0171933E-1,9.005917E-2,4.7831094E-1,-1.5711458E-2,2.4625066E-1,3.0771497E-1,6.308913E-1,2.7565405E-1,6.4598996E-4,7.723337E-1,-2.914539E-1,8.2875244E-2,5.421409E-2,-8.780429E-2,-7.388886E-2,-7.879877E-3,3.604312E-2,8.378809E-2,-7.328086E-2,3.5899755E-2,-6.273852E-2,-3.5828065E-2,-3.1290486E-2,6.8627454E-2,-5.1947452E-2,5.419872E-2],"split_indices":[27,49,49,49,28,45,47,46,46,44,46,50,49,28,0,0,0,0,0,0,0,0,0,0,0,0,0,0,0],"split_type":[0,0,0,0,0,0,0,0,0,0,0,0,0,0,0,0,0,0,0,0,0,0,0,0,0,0,0,0,0],"sum_hessian":[7.488584E2,3.8722183E2,3.6163657E2,1.466029E2,2.4061893E2,3.391053E2,2.2531284E1,4.355815E1,1.0304476E2,2.1700034E2,2.3618586E1,2.5701962E2,8.2085655E1,2.7286198E0,1.9802666E1,3.5390617E1,8.167533E0,6.306755E1,3.9977207E1,2.676296E1,1.9023738E2,1.0679435E1,1.2939152E1,1.3757054E2,1.194491E2,7.1851746E1,1.0233914E1,1.2443386E0,1.4842813E0],"tree_param":{"num_deleted":"0","num_feature":"51","num_nodes":"29","size_leaf_vector":"1"}},{"base_weights":[1.9558662E-4,7.5906134E-1,-5.638921E-1,-3.674637E-1,1.3770558E0,-7.3107964E-1,1.4013119E0,1.3528918E-1,-1.4694693E0,1.5401306E0,-2.5219122E-1,-5.00589E-1,-1.1244513E0,-3.488032E-2,1.5024391E0,4.8429497E-2,-6.6066824E-2,-8.471925E-2,7.855157E-3,7.898479E-2,-7.19065E-2,5.8525097E-2,-6.3507475E-2,-5.8727186E-2,-1.3660087E-2,-6.133118E-2,4.993496E-2,2.9525442E-2,8.118349E-2],"categories":[],"categories_nodes":[],"categories_segments":[],"categories_sizes":[],"default_left":[0,0,0,0,0,0,0,0,0,0,0,0,0,0,0,0,0,0,0,0,0,0,0,0,0,0,0,0,0],"id":4,"left_children":[1,3,5,7,9,11,13,15,17,19,21,23,25,-1,27,-1,-1,-1,-1,-1,-1,-1,-1,-1,-1,-1,-1,-1,-1],"loss_changes":[3.193253E2,2.2194244E2,1.4161424E2,6.3062897E1,5.5015472E1,3.5251923E1,8.241913E0,9.6968864E1,1.3301788E1,2.4311523E1,2.9823492E1,3.8124897E1,3.270903E1,0E0,2.6509094E0,0E0,0E0,0E0,0E0,0E0,0E0,0E0,0E0,0E0,0E0,0E0,0E0,0E0,0E0],"parents":[2147483647,0,0,1,1,2,2,3,3,4,4,5,5,6,6,7,7,8,8,9,9,10,10,11,11,12,12,14,14],"right_children":[2,4,6,8,10,12,14,16,18,20,22,24,26,-1,28,-1,-1,-1,-1,-1,-1,-1,-1,-1,-1,-1,-1,-1,-1],"split_conditions":[-2.2832071E-2,4.069374E-1,7.932044E-1,4.738436E-1,1.1433059E-1,1.1275455E-1,-7.404915E-2,-2.1468212E-1,4.9384138E-1,-1.5474995E-2,-1.540232E-1,4.7817054E-1,1.6067582E0,-3.488032E-2,-1.5711458E-2,4.8429497E-2,-6.6066824E-2,-8.471925E-2,7.855157E-3,7.898479E-2,-7.19065E-2,5.8525097E-2,-6.3507475E-2,-5.8727186E-2,-1.3660087E-2,-6.133118E-2,4.993496E-2,2.9525442E-2,8.118349E-2],"split_indices":[27,49,49,45,28,48,0,28,44,34,32,49,44,0,47,0,0,0,0,0,0,0,0,0,0,0,0,0,0],"split_type":[0,0,0,0,0,0,0,0,0,0,0,0,0,0,0,0,0,0,0,0,0,0,0,0,0,0,0,0,0],"sum_hessian":[7.439707E2,3.1707068E2,4.269E2,1.1246561E2,2.0460507E2,3.940082E2,3.289181E1,7.78338E1,3.463181E1,1.8603874E2,1.8566326E1,2.4987183E2,1.4413637E2,1.2407835E0,3.1651028E1,4.972332E1,2.8110477E1,3.0388172E1,4.2436395E0,1.8406313E2,1.9756149E0,7.681228E0,1.08850975E1,6.198592E1,1.8788591E2,1.3792145E2,6.214926E0,4.402813E0,2.7248215E1],"tree_param":{"num_deleted":"0","num_feature":"51","num_nodes":"29","size_leaf_vector":"1"}},{"base_weights":[1.5256912E-4,6.102577E-1,-6.460454E-1,-4.8867768E-1,1.2796006E0,-7.81347E-1,1.3767496E0,4.8354632E-1,-9.0610546E-1,1.4507959E0,-2.7113682E-1,-1.104862E0,-5.6162375E-1,7.149738E-2,7.742047E-2,5.016441E-2,-8.1953265E-2,4.9138255E-3,-6.282883E-2,7.517538E-2,-1.7336229E-2,5.7192396E-2,-5.0770164E-2,-4.5067962E-2,-8.5345566E-2,9.194612E-2,-3.4269016E-2,-5.1372875E-2,5.2028216E-2],"categories":[],"categories_nodes":[],"categories_segments":[],"categories_sizes":[],"default_left":[0,0,0,0,0,0,0,0,0,0,0,0,0,0,0,0,0,0,0,0,0,0,0,0,0,0,0,0,0],"id":5,"left_children":[1,3,5,7,9,11,13,15,17,19,21,23,25,27,-1,-1,-1,-1,-1,-1,-1,-1,-1,-1,-1,-1,-1,-1,-1],"loss_changes":[2.9198618E2,2.8083545E2,9.951245E1,5.925242E1,6.3318085E1,2.338852E1,5.022812E0,5.0388924E1,3.593598E1,2.0761505E1,2.6865646E1,1.5072372E1,6.1621307E1,5.02161E0,0E0,0E0,0E0,0E0,0E0,0E0,0E0,0E0,0E0,0E0,0E0,0E0,0E0,0E0,0E0],"parents":[2147483647,0,0,1,1,2,2,3,3,4,4,5,5,6,6,7,7,8,8,9,9,10,10,11,11,12,12,13,13],"right_children":[2,4,6,8,10,12,14,16,18,20,22,24,26,28,-1,-1,-1,-1,-1,-1,-1,-1,-1,-1,-1,-1,-1,-1,-1],"split_conditions":[-1.5292932E-2,4.5092878E-1,7.932044E-1,-1.0171933E-1,9.005917E-2,6.153382E-1,-1.5711458E-2,2.4625066E-1,-2.7174613E-1,1.7503647E-2,-3.074972E-1,4.6747074E-1,7.2289735E-1,-2.914539E-1,7.742047E-2,5.016441E-2,-8.1953265E-2,4.9138255E-3,-6.282883E-2,7.517538E-2,-1.7336229E-2,5.7192396E-2,-5.0770164E-2,-4.5067962E-2,-8.5345566E-2,9.194612E-2,-3.4269016E-2,-5.1372875E-2,5.2028216E-2],"split_indices":[27,49,49,49,28,49,47,46,33,47,2,46,44,28,0,0,0,0,0,0,0,0,0,0,0,0,0,0,0],"split_type":[0,0,0,0,0,0,0,0,0,0,0,0,0,0,0,0,0,0,0,0,0,0,0,0,0,0,0,0,0],"sum_hessian":[7.386142E2,3.7994568E2,3.5866852E2,1.4392226E2,2.3602342E2,3.367571E2,2.1911425E1,4.318422E1,1.0073804E2,2.126159E2,2.3407515E1,1.3457858E2,2.0217851E2,2.7113798E0,1.9200045E1,3.511364E1,8.070578E0,2.6244888E1,7.449315E1,2.0671754E2,5.8983645E0,7.8832173E0,1.5524297E1,1.0244696E2,3.2131622E1,9.23255E0,1.9294597E2,1.242307E0,1.4690727E0],"tree_param":{"num_deleted":"0","num_feature":"51","num_nodes":"29","size_leaf_vector":"1"}},{"base_weights":[2.3834566E-4,7.046522E-1,-5.162823E-1,-3.3414632E-1,1.2848434E0,-7.472927E-1,6.954659E-1,1.307461E-1,-1.3596276E0,1.4399809E0,-2.3566943E-1,-1.0185989E0,-3.5199386E-1,1.3736584E0,-7.5790626E-1,4.5855075E-2,-6.0940396E-2,-7.902953E-2,1.0100002E-2,7.396888E-2,-7.112794E-2,5.4200154E-2,-5.9005786E-2,-5.3310093E-2,3.550255E-2,-1.0228693E-3,-6.9372036E-2,8.199687E-2,-1.1313772E-2,-7.680385E-2,3.3837915E-3],"categories":[],"categories_nodes":[],"categories_segments":[],"categories_sizes":[],"default_left":[0,0,0,0,0,0,0,0,0,0,0,0,0,0,0,0,0,0,0,0,0,0,0,0,0,0,0,0,0,0,0],"id":6,"left_children":[1,3,5,7,9,11,13,15,17,19,21,23,25,27,29,-1,-1,-1,-1,-1,-1,-1,-1,-1,-1,-1,-1,-1,-1,-1,-1],"loss_changes":[2.6709943E2,1.8760736E2,1.190794E2,5.3615196E1,4.739334E1,3.784337E1,6.839538E1,8.393371E1,1.241433E1,2.2533386E1,2.5368235E1,1.8095505E1,5.0264175E1,2.03722E1,1.4485668E1,0E0,0E0,0E0,0E0,0E0,0E0,0E0,0E0,0E0,0E0,0E0,0E0,0E0,0E0,0E0,0E0],"parents":[2147483647,0,0,1,1,2,2,3,3,4,4,5,5,6,6,7,7,8,8,9,9,10,10,11,11,12,12,13,13,14,14],"right_children":[2,4,6,8,10,12,14,16,18,20,22,24,26,28,30,-1,-1,-1,-1,-1,-1,-1,-1,-1,-1,-1,-1,-1,-1,-1,-1],"split_conditions":[-2.2832071E-2,4.069374E-1,7.737919E-1,4.738436E-1,1.1433059E-1,9.985254E-1,2.9011713E-2,-2.1951805E-1,4.9384138E-1,-1.5474995E-2,-1.540232E-1,3.2084197E-1,6.2314564E-1,-2.8952122E-1,1.1952724E0,4.5855075E-2,-6.0940396E-2,-7.902953E-2,1.0100002E-2,7.396888E-2,-7.112794E-2,5.4200154E-2,-5.9005786E-2,-5.3310093E-2,3.550255E-2,-1.0228693E-3,-6.9372036E-2,8.199687E-2,-1.1313772E-2,-7.680385E-2,3.3837915E-3],"split_indices":[27,49,49,45,28,50,27,28,44,34,32,48,46,12,44,0,0,0,0,0,0,0,0,0,0,0,0,0,0,0,0],"split_type":[0,0,0,0,0,0,0,0,0,0,0,0,0,0,0,0,0,0,0,0,0,0,0,0,0,0,0,0,0,0,0],"sum_hessian":[7.321037E2,3.0956497E2,4.2253873E2,1.1108961E2,1.9847537E2,3.5520496E2,6.733376E1,7.703776E1,3.405185E1,1.801479E2,1.8327475E1,2.097026E2,1.4550235E2,4.594781E1,2.1385952E1,4.887804E1,2.815972E1,2.9820276E1,4.231572E0,1.7817885E2,1.9690537E0,7.5834174E0,1.0744057E1,2.0445561E2,5.247004E0,1.10985886E2,3.4516464E1,3.937035E1,6.5774612E0,1.056607E1,1.0819881E1],"tree_param":{"num_deleted":"0","num_feature":"51","num_nodes":"31","size_leaf_vector":"1"}},{"base_weights":[9.822042E-5,5.6784564E-1,-5.93228E-1,-4.4351086E-1,1.2039949E0,-7.158151E-1,1.289473E0,4.4839364E-1,-8.2207537E-1,1.3588079E0,-3.5686222E-1,-1.0263301E0,-5.009789E-1,5.0572257E-2,7.289217E-2,4.661585E-2,-7.723465E-2,-4.7134567E-2,9.5318116E-2,7.5513795E-2,3.2667235E-2,5.313961E-2,-6.216249E-2,-4.1654713E-2,-7.857468E-2,8.831721E-2,-3.069047E-2,-4.994865E-2,4.9516346E-2],"categories":[],"categories_nodes":[],"categories_segments":[],"categories_sizes":[],"default_left":[0,0,0,0,0,0,0,0,0,0,0,0,0,0,0,0,0,0,0,0,0,0,0,0,0,0,0,0,0],"id":7,"left_children":[1,3,5,7,9,11,13,15,17,19,21,23,25,27,-1,-1,-1,-1,-1,-1,-1,-1,-1,-1,-1,-1,-1,-1,-1],"loss_changes":[2.4491826E2,2.395733E2,8.2975975E1,4.90545E1,5.5662964E1,2.1795761E1,4.534279E0,4.3504585E1,3.5226593E1,2.1233826E1,2.8246338E1,1.2997589E1,5.2152607E1,4.6179085E0,0E0,0E0,0E0,0E0,0E0,0E0,0E0,0E0,0E0,0E0,0E0,0E0,0E0,0E0,0E0],"parents":[2147483647,0,0,1,1,2,2,3,3,4,4,5,5,6,6,7,7,8,8,9,9,10,10,11,11,12,12,13,13],"right_children":[2,4,6,8,10,12,14,16,18,20,22,24,26,28,-1,-1,-1,-1,-1,-1,-1,-1,-1,-1,-1,-1,-1,-1,-1],"split_conditions":[-1.5292932E-2,4.5695227E-1,7.932044E-1,-1.0171933E-1,1.1433059E-1,6.1999595E-1,-1.5711458E-2,2.4625066E-1,2.710752E-1,-2.987596E-1,-1.540232E-1,4.6747074E-1,7.2289735E-1,-2.914539E-1,7.289217E-2,4.661585E-2,-7.723465E-2,-4.7134567E-2,9.5318116E-2,7.5513795E-2,3.2667235E-2,5.313961E-2,-6.216249E-2,-4.1654713E-2,-7.857468E-2,8.831721E-2,-3.069047E-2,-4.994865E-2,4.9516346E-2],"split_indices":[27,49,49,49,28,49,47,46,48,31,32,46,44,28,0,0,0,0,0,0,0,0,0,0,0,0,0,0,0],"split_type":[0,0,0,0,0,0,0,0,0,0,0,0,0,0,0,0,0,0,0,0,0,0,0,0,0,0,0,0,0],"sum_hessian":[7.2506366E2,3.7054044E2,3.545232E2,1.4319322E2,2.2734721E2,3.334324E2,2.1090782E1,4.2612644E1,1.0058058E2,2.0695038E2,2.0396849E1,1.3480862E2,1.986238E2,2.678945E0,1.8411837E1,3.471583E1,7.896812E0,9.694924E1,3.6313393E0,1.6943143E2,3.751895E1,7.7635655E0,1.2633283E1,1.0139635E2,3.3412266E1,8.720999E0,1.899028E2,1.2357777E0,1.4431673E0],"tree_param":{"num_deleted":"0","num_feature":"51","num_nodes":"29","size_leaf_vector":"1"}},{"base_weights":[4.0642248E-4,6.583449E-1,-4.74337E-1,-3.0593163E-1,1.2089049E0,-6.877951E-1,6.5944904E-1,1.286644E-1,-1.2738771E0,1.3570337E0,-2.146773E-1,-9.455121E-1,-3.1516793E-1,1.3070832E0,-7.0063627E-1,4.3448087E-2,-5.7634383E-2,-7.464755E-2,1.16217695E-2,6.9833405E-2,-6.976731E-2,-6.567826E-2,4.0810697E-2,-4.9833268E-2,3.4767136E-2,1.2806569E-4,-6.555676E-2,7.833187E-2,-1.0663986E-2,-7.3021196E-2,4.687617E-3],"categories":[],"categories_nodes":[],"categories_segments":[],"categories_sizes":[],"default_left":[0,0,0,0,0,0,0,0,0,0,0,0,0,0,0,0,0,0,0,0,0,0,0,0,0,0,0,0,0,0,0],"id":8,"left_children":[1,3,5,7,9,11,13,15,17,19,21,23,25,27,29,-1,-1,-1,-1,-1,-1,-1,-1,-1,-1,-1,-1,-1,-1,-1,-1],"loss_changes":[2.2470573E2,1.60446E2,1.0158623E2,4.659909E1,4.0808136E1,3.3520508E1,5.9684452E1,7.412693E1,1.1664482E1,2.0948395E1,2.2564066E1,1.8124435E1,4.6040173E1,1.8307472E1,1.351964E1,0E0,0E0,0E0,0E0,0E0,0E0,0E0,0E0,0E0,0E0,0E0,0E0,0E0,0E0,0E0,0E0],"parents":[2147483647,0,0,1,1,2,2,3,3,4,4,5,5,6,6,7,7,8,8,9,9,10,10,11,11,12,12,13,13,14,14],"right_children":[2,4,6,8,10,12,14,16,18,20,22,24,26,28,30,-1,-1,-1,-1,-1,-1,-1,-1,-1,-1,-1,-1,-1,-1,-1,-1],"split_conditions":[-2.2832071E-2,4.069374E-1,7.737919E-1,4.738436E-1,1.1433059E-1,9.985254E-1,2.9011713E-2,-2.1951805E-1,4.9384138E-1,-1.5474995E-2,2.7565405E-1,5.628752E-1,6.2314564E-1,-2.8952122E-1,1.1952724E0,4.3448087E-2,-5.7634383E-2,-7.464755E-2,1.16217695E-2,6.9833405E-2,-6.976731E-2,-6.567826E-2,4.0810697E-2,-4.9833268E-2,3.4767136E-2,1.2806569E-4,-6.555676E-2,7.833187E-2,-1.0663986E-2,-7.3021196E-2,4.687617E-3],"split_indices":[27,49,49,45,28,50,27,28,44,34,46,45,46,12,44,0,0,0,0,0,0,0,0,0,0,0,0,0,0,0,0],"split_type":[0,0,0,0,0,0,0,0,0,0,0,0,0,0,0,0,0,0,0,0,0,0,0,0,0,0,0,0,0,0,0],"sum_hessian":[7.173993E2,3.00523E2,4.1687628E2,1.0938511E2,1.9113791E2,3.5115723E2,6.571906E1,7.608909E1,3.329602E1,1.7316609E2,1.7971813E1,2.0667729E2,1.4447992E2,4.4546333E1,2.1172735E1,4.843041E1,2.7658682E1,2.9076141E1,4.219881E0,1.7119347E2,1.9726307E0,8.566292E0,9.405521E0,2.008097E2,5.8676004E0,1.1029235E2,3.4187572E1,3.802442E1,6.521911E0,1.0393509E1,1.0779225E1],"tree_param":{"num_deleted":"0","num_feature":"51","num_nodes":"31","size_leaf_vector":"1"}},{"base_weights":[2.463062E-4,5.312021E-1,-5.4611677E-1,-4.090049E-1,1.1355464E0,-7.482282E-1,4.3870264E-1,4.1675404E-1,-7.591194E-1,1.2960378E0,-2.4812727E-1,-1.0898049E0,-4.7938088E-1,1.3182111E0,-6.5520805E-1,4.3418895E-2,-7.3346995E-2,-6.1471444E-2,-1.6257542E-3,2.3553057E-2,7.075335E-2,-6.305968E-2,3.0317962E-2,-5.8270544E-2,5.1327307E-2,-1.1946005E-2,-5.654962E-2,7.8342065E-2,-1.8392544E-2,-7.400798E-2,1.7482568E-2],"categories":[],"categories_nodes":[],"categories_segments":[],"categories_sizes":[],"default_left":[0,0,0,0,0,0,0,0,0,0,0,0,0,0,0,0,0,0,0,0,0,0,0,0,0,0,0,0,0,0,0],"id":9,"left_children":[1,3,5,7,9,11,13,15,17,19,21,23,25,27,29,-1,-1,-1,-1,-1,-1,-1,-1,-1,-1,-1,-1,-1,-1,-1,-1],"loss_changes":[2.0635178E2,2.0544528E2,7.0108116E1,4.133743E1,4.9145782E1,2.6223618E1,5.8904343E1,3.776325E1,3.413121E1,1.8694916E1,2.1272402E1,2.1595703E1,2.5545658E1,1.4734009E1,2.3358948E1,0E0,0E0,0E0,0E0,0E0,0E0,0E0,0E0,0E0,0E0,0E0,0E0,0E0,0E0,0E0,0E0],"parents":[2147483647,0,0,1,1,2,2,3,3,4,4,5,5,6,6,7,7,8,8,9,9,10,10,11,11,12,12,13,13,14,14],"right_children":[2,4,6,8,10,12,14,16,18,20,22,24,26,28,30,-1,-1,-1,-1,-1,-1,-1,-1,-1,-1,-1,-1,-1,-1,-1,-1],"split_conditions":[-1.5292932E-2,4.5695227E-1,7.6651603E-1,-1.0171933E-1,9.005917E-2,6.4598996E-4,2.9011713E-2,2.4625066E-1,3.0771497E-1,6.308913E-1,2.7565405E-1,5.628752E-1,6.2314564E-1,-2.8952122E-1,1.1952724E0,4.3418895E-2,-7.3346995E-2,-6.1471444E-2,-1.6257542E-3,2.3553057E-2,7.075335E-2,-6.305968E-2,3.0317962E-2,-5.8270544E-2,5.1327307E-2,-1.1946005E-2,-5.654962E-2,7.8342065E-2,-1.8392544E-2,-7.400798E-2,1.7482568E-2],"split_indices":[27,49,49,49,28,50,27,46,46,44,46,45,46,12,44,0,0,0,0,0,0,0,0,0,0,0,0,0,0,0,0],"split_type":[0,0,0,0,0,0,0,0,0,0,0,0,0,0,0,0,0,0,0,0,0,0,0,0,0,0,0,0,0,0,0],"sum_hessian":[7.093257E2,3.5974915E2,3.4957654E2,1.4088731E2,2.1886182E2,2.9024976E2,5.93268E1,4.1892303E1,9.899501E1,1.9617139E2,2.269044E1,1.26488976E2,1.6376077E2,3.2772522E1,2.655428E1,3.4225574E1,7.666728E0,5.9676292E1,3.9318718E1,2.5360237E1,1.7081114E2,1.0164085E1,1.2526354E1,1.2255989E2,3.9290836E0,1.2061684E2,4.3143936E1,2.8622498E1,4.150024E0,1.43228E1,1.223148E1],"tree_param":{"num_deleted":"0","num_feature":"51","num_nodes":"31","size_leaf_vector":"1"}},{"base_weights":[2.0091665E-4,6.1816335E-1,-4.3765473E-1,-2.8126445E-1,1.1436688E0,-6.4503753E-1,5.532143E-1,1.3246757E-1,-1.2104893E0,1.2869595E0,-1.9570099E-1,-9.0528446E-1,-2.8608066E-1,1.2543306E0,-6.296087E-1,4.0837295E-2,-5.356095E-2,-7.127732E-2,1.1210165E-2,6.633864E-2,-6.765851E-2,4.8892137E-2,-5.229714E-2,-4.7779027E-2,3.9243545E-2,2.9190228E-4,-6.074496E-2,7.5232945E-2,-1.058247E-2,-7.1698226E-2,1.663564E-2],"categories":[],"categories_nodes":[],"categories_segments":[],"categories_sizes":[],"default_left":[0,0,0,0,0,0,0,0,0,0,0,0,0,0,0,0,0,0,0,0,0,0,0,0,0,0,0,0,0,0,0],"id":10,"left_children":[1,3,5,7,9,11,13,15,17,19,21,23,25,27,29,-1,-1,-1,-1,-1,-1,-1,-1,-1,-1,-1,-1,-1,-1,-1,-1],"loss_changes":[1.9005037E2,1.3799852E2,8.4833755E1,4.176796E1,3.5576157E1,3.154155E1,6.024042E1,6.329638E1,1.0637375E1,1.9286255E1,1.9637836E1,1.7486252E1,3.9196323E1,1.6958359E1,2.1643345E1,0E0,0E0,0E0,0E0,0E0,0E0,0E0,0E0,0E0,0E0,0E0,0E0,0E0,0E0,0E0,0E0],"parents":[2147483647,0,0,1,1,2,2,3,3,4,4,5,5,6,6,7,7,8,8,9,9,10,10,11,11,12,12,13,13,14,14],"right_children":[2,4,6,8,10,12,14,16,18,20,22,24,26,28,30,-1,-1,-1,-1,-1,-1,-1,-1,-1,-1,-1,-1,-1,-1,-1,-1],"split_conditions":[-2.2832071E-2,4.069374E-1,7.6651603E-1,4.738436E-1,1.1433059E-1,9.985254E-1,2.9011713E-2,-2.1951805E-1,4.9384138E-1,-1.5474995E-2,-1.540232E-1,3.2084197E-1,6.2314564E-1,-2.8952122E-1,1.1952724E0,4.0837295E-2,-5.356095E-2,-7.127732E-2,1.1210165E-2,6.633864E-2,-6.765851E-2,4.8892137E-2,-5.229714E-2,-4.7779027E-2,3.9243545E-2,2.9190228E-4,-6.074496E-2,7.5232945E-2,-1.058247E-2,-7.1698226E-2,1.663564E-2],"split_indices":[27,49,49,45,28,50,27,28,44,34,32,48,46,12,44,0,0,0,0,0,0,0,0,0,0,0,0,0,0,0,0],"split_type":[0,0,0,0,0,0,0,0,0,0,0,0,0,0,0,0,0,0,0,0,0,0,0,0,0,0,0,0,0,0,0],"sum_hessian":[7.0038586E2,2.902845E2,4.101014E2,1.07226295E2,1.8305818E2,3.394133E2,7.0688095E1,7.478579E1,3.2440502E1,1.65402E2,1.765619E1,1.95878E2,1.435353E2,4.4343254E1,2.6344845E1,4.788521E1,2.6900583E1,2.8217186E1,4.2233167E0,1.6343484E2,1.9671482E0,7.354747E0,1.0301445E1,1.9063953E2,5.23848E0,1.0996734E2,3.356796E1,3.7853134E1,6.4901214E0,1.4083255E1,1.2261589E1],"tree_param":{"num_deleted":"0","num_feature":"51","num_nodes":"31","size_leaf_vector":"1"}},{"base_weights":[1.03664526E-4,4.9897993E-1,-5.048733E-1,-3.794506E-1,1.0763255E0,-6.8966234E-1,4.0782994E-1,3.882872E-1,-7.051864E-1,1.2328634E0,-2.3789743E-1,-1.015383E0,-4.372743E-1,1.2399293E0,-6.056956E-1,4.0527984E-2,-7.0083044E-2,-4.141461E-2,9.934921E-2,2.3504732E-2,6.8230316E-2,-5.023372E-2,4.08756E-2,-5.4517027E-2,5.116681E-2,-3.0025715E-2,2.3040138E-2,7.144378E-2,-3.919966E-2,-6.959101E-2,1.5833477E-2],"categories":[],"categories_nodes":[],"categories_segments":[],"categories_sizes":[],"default_left":[0,0,0,0,0,0,0,0,0,0,0,0,0,0,0,0,0,0,0,0,0,0,0,0,0,0,0,0,0,0,0],"id":11,"left_children":[1,3,5,7,9,11,13,15,17,19,21,23,25,27,29,-1,-1,-1,-1,-1,-1,-1,-1,-1,-1,-1,-1,-1,-1,-1,-1],"loss_changes":[1.7465582E2,1.7728206E2,5.839077E1,3.5047844E1,4.364023E1,2.3141571E1,5.020544E1,3.293241E1,3.4120033E1,1.8294586E1,1.9648067E1,2.0141174E1,2.4232025E1,1.356028E1,2.0097836E1,0E0,0E0,0E0,0E0,0E0,0E0,0E0,0E0,0E0,0E0,0E0,0E0,0E0,0E0,0E0,0E0],"parents":[2147483647,0,0,1,1,2,2,3,3,4,4,5,5,6,6,7,7,8,8,9,9,10,10,11,11,12,12,13,13,14,14],"right_children":[2,4,6,8,10,12,14,16,18,20,22,24,26,28,30,-1,-1,-1,-1,-1,-1,-1,-1,-1,-1,-1,-1,-1,-1,-1,-1],"split_conditions":[-1.5292932E-2,4.5695227E-1,7.6651603E-1,-1.0171933E-1,9.005917E-2,6.4598996E-4,2.9011713E-2,2.4625066E-1,2.710752E-1,6.3641566E-1,-1.1138159E0,5.628752E-1,1.0632627E-2,1.4987174E0,1.1952724E0,4.0527984E-2,-7.0083044E-2,-4.141461E-2,9.934921E-2,2.3504732E-2,6.8230316E-2,-5.023372E-2,4.08756E-2,-5.4517027E-2,5.116681E-2,-3.0025715E-2,2.3040138E-2,7.144378E-2,-3.919966E-2,-6.959101E-2,1.5833477E-2],"split_indices":[27,49,49,49,28,50,27,46,48,44,5,45,47,44,44,0,0,0,0,0,0,0,0,0,0,0,0,0,0,0,0],"split_type":[0,0,0,0,0,0,0,0,0,0,0,0,0,0,0,0,0,0,0,0,0,0,0,0,0,0,0,0,0,0,0],"sum_hessian":[6.912959E2,3.4775452E2,3.4354135E2,1.3805176E2,2.0970277E2,2.8590118E2,5.764017E1,4.1067158E1,9.69846E1,1.8743874E2,2.226403E1,1.2349762E2,1.6240358E2,3.1530449E1,2.6109722E1,3.3670906E1,7.3962526E0,9.340573E1,3.5788627E0,2.8278612E1,1.5916013E2,1.2923157E1,9.340873E0,1.19566696E2,3.930919E0,1.3770483E2,2.4698744E1,2.9107119E1,2.423331E0,1.3821122E1,1.2288601E1],"tree_param":{"num_deleted":"0","num_feature":"51","num_nodes":"31","size_leaf_vector":"1"}},{"base_weights":[3.3917956E-4,5.8249336E-1,-4.0456834E-1,-2.5885972E-1,1.087346E0,-5.93873E-1,5.160845E-1,1.300213E-1,-1.1446931E0,1.2730905E0,1.0436344E-1,-8.403259E-1,-2.5868338E-1,1.183162E0,-5.8326805E-1,3.8409945E-2,-5.188612E-2,-6.807232E-2,1.2455981E-2,6.541284E-2,-1.6266143E-2,-4.401022E-2,4.8522852E-2,-4.4506405E-2,3.9558116E-2,9.7128435E-4,-5.769497E-2,7.17095E-2,-1.1107725E-2,-6.7658804E-2,1.5073187E-2],"categories":[],"categories_nodes":[],"categories_segments":[],"categories_sizes":[],"default_left":[0,0,0,0,0,0,0,0,0,0,0,0,0,0,0,0,0,0,0,0,0,0,0,0,0,0,0,0,0,0,0],"id":12,"left_children":[1,3,5,7,9,11,13,15,17,19,21,23,25,27,29,-1,-1,-1,-1,-1,-1,-1,-1,-1,-1,-1,-1,-1,-1,-1,-1],"loss_changes":[1.612247E2,1.1945829E2,7.061198E1,3.6673977E1,3.1919022E1,2.7461533E1,5.1537003E1,5.6376377E1,1.0142292E1,8.719864E0,2.5573656E1,1.635698E1,3.5728527E1,1.5657669E1,1.8699524E1,0E0,0E0,0E0,0E0,0E0,0E0,0E0,0E0,0E0,0E0,0E0,0E0,0E0,0E0,0E0,0E0],"parents":[2147483647,0,0,1,1,2,2,3,3,4,4,5,5,6,6,7,7,8,8,9,9,10,10,11,11,12,12,13,13,14,14],"right_children":[2,4,6,8,10,12,14,16,18,20,22,24,26,28,30,-1,-1,-1,-1,-1,-1,-1,-1,-1,-1,-1,-1,-1,-1,-1,-1],"split_conditions":[-2.2832071E-2,4.069374E-1,7.6651603E-1,4.738436E-1,-6.1271098E-2,9.985254E-1,2.9011713E-2,-2.1468212E-1,4.9384138E-1,1.7679248E-2,-1.4084924E0,3.2084197E-1,6.2314564E-1,-2.8952122E-1,1.1952724E0,3.8409945E-2,-5.188612E-2,-6.807232E-2,1.2455981E-2,6.541284E-2,-1.6266143E-2,-4.401022E-2,4.8522852E-2,-4.4506405E-2,3.9558116E-2,9.7128435E-4,-5.769497E-2,7.17095E-2,-1.1107725E-2,-6.7658804E-2,1.5073187E-2],"split_indices":[27,49,49,45,26,50,27,28,44,47,21,48,46,12,44,0,0,0,0,0,0,0,0,0,0,0,0,0,0,0,0],"split_type":[0,0,0,0,0,0,0,0,0,0,0,0,0,0,0,0,0,0,0,0,0,0,0,0,0,0,0,0,0,0,0],"sum_hessian":[6.819713E2,2.7957495E2,4.0239636E2,1.0502863E2,1.7454631E2,3.3406155E2,6.83348E1,7.3580154E1,3.144848E1,1.4655763E2,2.7988682E1,1.9164493E2,1.4241663E2,4.2481293E1,2.585351E1,4.7799595E1,2.5780558E1,2.7236176E1,4.2123046E0,1.4358029E2,2.9773526E0,1.3090837E1,1.4897844E1,1.8640907E2,5.2358494E0,1.0940654E2,3.3010086E1,3.602559E1,6.455702E0,1.3540698E1,1.2312811E1],"tree_param":{"num_deleted":"0","num_feature":"51","num_nodes":"31","size_leaf_vector":"1"}},{"base_weights":[3.353971E-4,4.7018996E-1,-4.6771744E-1,-2.9890373E-1,1.063595E0,-6.366895E-1,3.8011578E-1,-4.0418434E-1,8.554725E-2,1.2425356E0,-1.6846962E-1,-9.489378E-1,-3.9890486E-1,1.1707036E0,-5.621567E-1,-2.2841252E-3,-7.612192E-2,6.464845E-2,-1.8164266E-2,-5.118189E-2,3.3533793E-2,-5.1177777E-2,5.0866336E-2,-2.7812064E-2,2.2930197E-2,6.791144E-2,-3.786501E-2,-6.587867E-2,1.4352149E-2],"categories":[],"categories_nodes":[],"categories_segments":[],"categories_sizes":[],"default_left":[0,0,0,0,0,0,0,0,0,0,0,0,0,0,0,0,0,0,0,0,0,0,0,0,0,0,0,0,0],"id":13,"left_children":[1,3,5,7,9,11,13,15,-1,17,19,21,23,25,27,-1,-1,-1,-1,-1,-1,-1,-1,-1,-1,-1,-1,-1,-1],"loss_changes":[1.4833806E2,1.5394197E2,4.865072E1,3.1877697E1,4.214804E1,2.0568893E1,4.2955936E1,5.6399406E1,0E0,1.393158E1,1.8630247E1,1.8829636E1,2.2096422E1,1.2308643E1,1.7429417E1,0E0,0E0,0E0,0E0,0E0,0E0,0E0,0E0,0E0,0E0,0E0,0E0,0E0,0E0],"parents":[2147483647,0,0,1,1,2,2,3,3,4,4,5,5,6,6,7,7,9,9,10,10,11,11,12,12,13,13,14,14],"right_children":[2,4,6,8,10,12,14,16,-1,18,20,22,24,26,28,-1,-1,-1,-1,-1,-1,-1,-1,-1,-1,-1,-1,-1,-1],"split_conditions":[-1.5292932E-2,4.79776E-1,7.6651603E-1,2.710752E-1,7.577232E-2,6.4598996E-4,2.9011713E-2,-2.1468212E-1,8.554725E-2,1.7503647E-2,-1.4371502E0,5.628752E-1,1.0632627E-2,1.4987174E0,1.1952724E0,-2.2841252E-3,-7.612192E-2,6.464845E-2,-1.8164266E-2,-5.118189E-2,3.3533793E-2,-5.1177777E-2,5.0866336E-2,-2.7812064E-2,2.2930197E-2,6.791144E-2,-3.786501E-2,-6.587867E-2,1.4352149E-2],"split_indices":[27,49,49,48,28,50,27,28,0,47,21,45,47,44,44,0,0,0,0,0,0,0,0,0,0,0,0,0,0],"split_type":[0,0,0,0,0,0,0,0,0,0,0,0,0,0,0,0,0,0,0,0,0,0,0,0,0,0,0,0,0],"sum_hessian":[6.725191E2,3.356113E2,3.3690778E2,1.4638396E2,1.8922736E2,2.8112833E2,5.577947E1,1.3985683E2,6.5271306E0,1.6522253E2,2.4004816E1,1.202416E2,1.6088672E2,3.0199217E1,2.5580252E1,1.0669292E2,3.3163906E1,1.6038037E2,4.8421726E0,1.1780016E1,1.22248E1,1.163073E2,3.9342995E0,1.3624052E2,2.4646193E1,2.7791622E1,2.4075954E0,1.3245763E1,1.2334489E1],"tree_param":{"num_deleted":"0","num_feature":"51","num_nodes":"29","size_leaf_vector":"1"}},{"base_weights":[4.47423E-4,5.498343E-1,-3.7493432E-1,-2.3574215E-1,1.0366402E0,-5.479804E-1,4.838461E-1,1.4648134E-1,-1.1093404E0,1.2203826E0,9.6273415E-2,-7.8122324E-1,-2.3554337E-1,1.1218643E0,-5.422176E-1,-7.019373E-2,2.9704584E-2,-6.6215865E-2,1.2035722E-2,6.279915E-2,-1.4919956E-2,-4.1019525E-2,4.561388E-2,-4.0781327E-2,7.1524195E-2,1.4557614E-3,-5.495664E-2,6.877738E-2,-1.1536963E-2,-6.423128E-2,1.3667955E-2],"categories":[],"categories_nodes":[],"categories_segments":[],"categories_sizes":[],"default_left":[0,0,0,0,0,0,0,0,0,0,0,0,0,0,0,0,0,0,0,0,0,0,0,0,0,0,0,0,0,0,0],"id":14,"left_children":[1,3,5,7,9,11,13,15,17,19,21,23,25,27,29,-1,-1,-1,-1,-1,-1,-1,-1,-1,-1,-1,-1,-1,-1,-1,-1],"loss_changes":[1.3721278E2,1.03526924E2,5.9005013E1,3.4936996E1,2.8725632E1,2.3823883E1,4.4352154E1,5.172145E1,9.552128E0,7.920624E0,2.1970318E1,1.5486626E1,3.254372E1,1.4566681E1,1.627164E1,0E0,0E0,0E0,0E0,0E0,0E0,0E0,0E0,0E0,0E0,0E0,0E0,0E0,0E0,0E0,0E0],"parents":[2147483647,0,0,1,1,2,2,3,3,4,4,5,5,6,6,7,7,8,8,9,9,10,10,11,11,12,12,13,13,14,14],"right_children":[2,4,6,8,10,12,14,16,18,20,22,24,26,28,30,-1,-1,-1,-1,-1,-1,-1,-1,-1,-1,-1,-1,-1,-1,-1,-1],"split_conditions":[-2.2832071E-2,4.069374E-1,7.6651603E-1,4.738436E-1,-6.1271098E-2,9.985254E-1,2.9011713E-2,1.6714902E-1,4.9384138E-1,1.7679248E-2,-1.4084924E0,3.2392693E-1,6.2314564E-1,-2.8952122E-1,1.1952724E0,-7.019373E-2,2.9704584E-2,-6.6215865E-2,1.2035722E-2,6.279915E-2,-1.4919956E-2,-4.1019525E-2,4.561388E-2,-4.0781327E-2,7.1524195E-2,1.4557614E-3,-5.495664E-2,6.877738E-2,-1.1536963E-2,-6.423128E-2,1.3667955E-2],"split_indices":[27,49,49,45,26,50,27,46,44,47,21,48,46,12,44,0,0,0,0,0,0,0,0,0,0,0,0,0,0,0,0],"split_type":[0,0,0,0,0,0,0,0,0,0,0,0,0,0,0,0,0,0,0,0,0,0,0,0,0,0,0,0,0,0,0],"sum_hessian":[6.633396E2,2.690739E2,3.942657E2,1.0314338E2,1.6593054E2,3.284452E2,6.58205E1,7.232953E1,3.0813852E1,1.385591E2,2.7371452E1,1.8719704E2,1.4124814E2,4.052699E1,2.5293514E1,1.572558E1,5.660395E1,2.6597628E1,4.2162232E0,1.3555472E2,3.0043776E0,1.2888119E1,1.4483334E1,1.8495134E2,2.2457066E0,1.088545E2,3.2393642E1,3.4112213E1,6.4147754E0,1.2939634E1,1.235388E1],"tree_param":{"num_deleted":"0","num_feature":"51","num_nodes":"31","size_leaf_vector":"1"}},{"base_weights":[4.508856E-4,4.423955E-1,-4.3376026E-1,1.2086095E0,-1.0422128E-1,-5.881972E-1,3.5538942E-1,1.2921652E0,-4.8401445E-1,-4.2034423E-1,4.8640493E-1,-8.885047E-1,-3.637485E-1,1.1101477E0,-5.2332836E-1,4.0953704E-3,6.546851E-2,-6.721817E-2,6.320249E-2,1.5225817E-2,-4.1942935E-2,4.647418E-2,-4.4929553E-3,-4.8147276E-2,5.0413348E-2,-2.5772566E-2,2.274773E-2,6.7885906E-2,-1.7412528E-2,-6.2700264E-2,1.3018399E-2],"categories":[],"categories_nodes":[],"categories_segments":[],"categories_sizes":[],"default_left":[0,0,0,0,0,0,0,0,0,0,0,0,0,0,0,0,0,0,0,0,0,0,0,0,0,0,0,0,0,0,0],"id":15,"left_children":[1,3,5,7,9,11,13,15,17,19,21,23,25,27,29,-1,-1,-1,-1,-1,-1,-1,-1,-1,-1,-1,-1,-1,-1,-1,-1],"loss_changes":[1.2590902E2,1.363143E2,4.0544365E1,1.9784424E1,3.581009E1,1.8358948E1,3.6919815E1,2.586502E0,1.2377684E1,3.8100735E1,1.717733E1,1.7612015E1,2.0145071E1,1.1230549E1,1.5212807E1,0E0,0E0,0E0,0E0,0E0,0E0,0E0,0E0,0E0,0E0,0E0,0E0,0E0,0E0,0E0,0E0],"parents":[2147483647,0,0,1,1,2,2,3,3,4,4,5,5,6,6,7,7,8,8,9,9,10,10,11,11,12,12,13,13,14,14],"right_children":[2,4,6,8,10,12,14,16,18,20,22,24,26,28,30,-1,-1,-1,-1,-1,-1,-1,-1,-1,-1,-1,-1,-1,-1,-1,-1],"split_conditions":[-1.5292932E-2,-3.0185878E-1,7.6651603E-1,1.4714676E-1,4.069374E-1,6.4598996E-4,2.9011713E-2,-1.6143161E0,-2.106342E-2,2.4316414E-1,-4.0027744E-1,5.628752E-1,1.0632627E-2,-2.8952122E-1,1.1952724E0,4.0953704E-3,6.546851E-2,-6.721817E-2,6.320249E-2,1.5225817E-2,-4.1942935E-2,4.647418E-2,-4.4929553E-3,-4.8147276E-2,5.0413348E-2,-2.5772566E-2,2.274773E-2,6.7885906E-2,-1.7412528E-2,-6.2700264E-2,1.3018399E-2],"split_indices":[27,33,49,28,49,50,27,21,34,46,20,45,47,12,44,0,0,0,0,0,0,0,0,0,0,0,0,0,0,0,0],"split_type":[0,0,0,0,0,0,0,0,0,0,0,0,0,0,0,0,0,0,0,0,0,0,0,0,0,0,0,0,0,0,0],"sum_hessian":[6.5412714E2,3.2416736E2,3.2995975E2,1.344677E2,1.8969966E2,2.7616818E2,5.3791573E1,1.2836748E2,6.1002192E0,1.2375183E2,6.594783E1,1.1685717E2,1.5931102E2,2.8795145E1,2.4996426E1,1.880044E0,1.26487434E2,4.242915E0,1.8573039E0,4.5397114E1,7.835472E1,3.6935703E1,2.9012123E1,1.1291791E2,3.93926E0,1.3471854E2,2.4592474E1,2.4675407E1,4.1197386E0,1.2625222E1,1.2371204E1],"tree_param":{"num_deleted":"0","num_feature":"51","num_nodes":"31","size_leaf_vector":"1"}},{"base_weights":[6.8714033E-4,5.181145E-1,-3.4724483E-1,1.1372699E0,-4.5381486E-2,-5.052979E-1,4.5556372E-1,1.2523267E0,-4.1847256E-1,-1.3658315E0,1.3487965E-1,-7.2696036E-1,-2.1312696E-1,1.0696611E0,-5.053841E-1,3.7122708E-2,6.5698706E-2,3.4200467E-2,-6.260552E-2,8.630326E-3,-7.61744E-2,5.363382E-2,-1.7422883E-2,-3.884763E-2,4.1238382E-2,1.9670685E-3,-5.2475598E-2,6.619569E-2,-1.0850365E-2,-6.127165E-2,1.2401435E-2],"categories":[],"categories_nodes":[],"categories_segments":[],"categories_sizes":[],"default_left":[0,0,0,0,0,0,0,0,0,0,0,0,0,0,0,0,0,0,0,0,0,0,0,0,0,0,0,0,0,0,0],"id":16,"left_children":[1,3,5,7,9,11,13,15,17,19,21,23,25,27,29,-1,-1,-1,-1,-1,-1,-1,-1,-1,-1,-1,-1,-1,-1,-1,-1],"loss_changes":[1.1646283E2,9.079836E1,4.9311123E1,2.2714172E1,3.282524E1,2.0806198E1,3.839807E1,2.660553E0,9.391296E0,4.2799473E0,5.5478283E1,1.4885017E1,2.982282E1,1.3196499E1,1.4241556E1,0E0,0E0,0E0,0E0,0E0,0E0,0E0,0E0,0E0,0E0,0E0,0E0,0E0,0E0,0E0,0E0],"parents":[2147483647,0,0,1,1,2,2,3,3,4,4,5,5,6,6,7,7,8,8,9,9,10,10,11,11,12,12,13,13,14,14],"right_children":[2,4,6,8,10,12,14,16,18,20,22,24,26,28,30,-1,-1,-1,-1,-1,-1,-1,-1,-1,-1,-1,-1,-1,-1,-1,-1],"split_conditions":[-2.2832071E-2,-2.8426784E-1,7.6651603E-1,1.4714676E-1,1.6714902E-1,9.985254E-1,2.9011713E-2,-1.5060712E0,-1.5388007E-1,-2.9475895E-1,2.4316414E-1,3.2084197E-1,6.2314564E-1,-2.8952122E-1,1.1952724E0,3.7122708E-2,6.5698706E-2,3.4200467E-2,-6.260552E-2,8.630326E-3,-7.61744E-2,5.363382E-2,-1.7422883E-2,-3.884763E-2,4.1238382E-2,1.9670685E-3,-5.2475598E-2,6.619569E-2,-1.0850365E-2,-6.127165E-2,1.2401435E-2],"split_indices":[27,33,49,28,46,50,27,21,30,28,46,48,46,12,44,0,0,0,0,0,0,0,0,0,0,0,0,0,0,0,0],"split_type":[0,0,0,0,0,0,0,0,0,0,0,0,0,0,0,0,0,0,0,0,0,0,0,0,0,0,0,0,0,0,0],"sum_hessian":[6.449103E2,2.5910013E2,3.8581012E2,1.22967865E2,1.3613226E2,3.2265747E2,6.3152653E1,1.1468148E2,8.286383E0,1.5561814E1,1.2057045E2,1.8262018E2,1.400373E2,3.8460922E1,2.4691732E1,1.3777133E1,1.0090435E2,3.6451623E0,4.64122E0,1.4376986E0,1.4124115E1,4.059213E1,7.997832E1,1.7740404E2,5.2161484E0,1.0829937E2,3.1737919E1,3.2090683E1,6.37024E0,1.2305068E1,1.2386665E1],"tree_param":{"num_deleted":"0","num_feature":"51","num_nodes":"31","size_leaf_vector":"1"}},{"base_weights":[7.9810375E-4,4.1655225E-1,-4.0286085E-1,1.1680483E0,-9.757302E-2,-5.4405403E-1,3.3369756E-1,1.2512323E0,-4.5418486E-1,-3.656694E-1,5.327018E-1,-8.3363956E-1,-3.3188182E-1,1.0585045E0,-4.882944E-1,3.337105E-3,6.34473E-2,-6.427535E-2,6.051392E-2,1.0454063E-2,-3.837841E-2,4.0028468E-2,-1.241613E-2,-4.5404352E-2,4.989672E-2,1.31038E-2,-2.6323587E-2,6.2467664E-2,-3.6314372E-2,-5.9933435E-2,1.1815201E-2],"categories":[],"categories_nodes":[],"categories_segments":[],"categories_sizes":[],"default_left":[0,0,0,0,0,0,0,0,0,0,0,0,0,0,0,0,0,0,0,0,0,0,0,0,0,0,0,0,0,0,0],"id":17,"left_children":[1,3,5,7,9,11,13,15,17,19,21,23,25,27,29,-1,-1,-1,-1,-1,-1,-1,-1,-1,-1,-1,-1,-1,-1,-1,-1],"loss_changes":[1.0710288E2,1.2158032E2,3.3856422E1,1.7812393E1,3.1893827E1,1.6441673E1,3.1918665E1,2.4713135E0,1.1195642E1,3.0698982E1,1.199633E1,1.6505074E1,1.8480412E1,1.0555515E1,1.3348196E1,0E0,0E0,0E0,0E0,0E0,0E0,0E0,0E0,0E0,0E0,0E0,0E0,0E0,0E0,0E0,0E0],"parents":[2147483647,0,0,1,1,2,2,3,3,4,4,5,5,6,6,7,7,8,8,9,9,10,10,11,11,12,12,13,13,14,14],"right_children":[2,4,6,8,10,12,14,16,18,20,22,24,26,28,30,-1,-1,-1,-1,-1,-1,-1,-1,-1,-1,-1,-1,-1,-1,-1,-1],"split_conditions":[-1.5292932E-2,-3.0185878E-1,7.6651603E-1,1.4714676E-1,4.7817054E-1,6.4598996E-4,2.9011713E-2,-1.6143161E0,-2.106342E-2,2.4687412E-1,9.005917E-2,5.628752E-1,7.246502E-1,1.4987174E0,1.1952724E0,3.337105E-3,6.34473E-2,-6.427535E-2,6.051392E-2,1.0454063E-2,-3.837841E-2,4.0028468E-2,-1.241613E-2,-4.5404352E-2,4.989672E-2,1.31038E-2,-2.6323587E-2,6.2467664E-2,-3.6314372E-2,-5.9933435E-2,1.1815201E-2],"split_indices":[27,33,49,28,49,50,27,21,34,46,28,45,44,44,44,0,0,0,0,0,0,0,0,0,0,0,0,0,0,0,0],"split_type":[0,0,0,0,0,0,0,0,0,0,0,0,0,0,0,0,0,0,0,0,0,0,0,0,0,0,0,0,0,0,0],"sum_hessian":[6.3619006E2,3.1338394E2,3.228061E2,1.26787285E2,1.8659666E2,2.7109952E2,5.1706562E1,1.2082061E2,5.966674E0,1.312061E2,5.539056E1,1.13397995E2,1.5770152E2,2.7324734E1,2.438183E1,1.8504608E0,1.18970146E2,4.131071E0,1.835603E0,5.4189754E1,7.701635E1,4.1226204E1,1.4164357E1,1.09453285E2,3.9447136E0,3.883042E1,1.1887111E2,2.4956158E1,2.3685763E0,1.1981387E1,1.2400442E1],"tree_param":{"num_deleted":"0","num_feature":"51","num_nodes":"31","size_leaf_vector":"1"}},{"base_weights":[9.452972E-4,5.5090505E-1,-2.8550813E-1,9.4054085E-1,-3.0027798E-1,-3.832827E-1,9.4896495E-1,1.9795784E-1,1.2082585E0,5.290445E-1,-8.196525E-1,-7.6987284E-1,-2.216676E-1,1.0975181E0,-5.150562E-2,4.988545E-2,-4.1819625E-2,-5.0963927E-2,6.2169064E-2,-6.476664E-2,5.3552616E-2,-6.1440583E-2,2.1353269E-2,-6.334928E-2,-2.0812316E-2,4.0327962E-2,-2.1637538E-2,5.996765E-2,3.8338627E-4],"categories":[],"categories_nodes":[],"categories_segments":[],"categories_sizes":[],"default_left":[0,0,0,0,0,0,0,0,0,0,0,0,0,0,0,0,0,0,0,0,0,0,0,0,0,0,0,0,0],"id":18,"left_children":[1,3,5,7,9,11,13,15,17,19,21,23,25,27,-1,-1,-1,-1,-1,-1,-1,-1,-1,-1,-1,-1,-1,-1,-1],"loss_changes":[9.9112724E1,7.174164E1,5.0294044E1,2.9193085E1,2.9902912E1,2.3822784E1,1.0140846E1,3.4276463E1,9.765518E0,2.804096E1,2.2185137E1,1.9303612E1,5.9431183E1,3.2084503E0,0E0,0E0,0E0,0E0,0E0,0E0,0E0,0E0,0E0,0E0,0E0,0E0,0E0,0E0,0E0],"parents":[2147483647,0,0,1,1,2,2,3,3,4,4,5,5,6,6,7,7,8,8,9,9,10,10,11,11,12,12,13,13],"right_children":[2,4,6,8,10,12,14,16,18,20,22,24,26,28,-1,-1,-1,-1,-1,-1,-1,-1,-1,-1,-1,-1,-1,-1,-1],"split_conditions":[-2.6915263E-2,-1.6212644E-1,7.932044E-1,2.844459E-1,-2.0038457E-1,4.7817054E-1,1.1433059E-1,-4.0640628E-1,2.1397558E-1,1.6714902E-1,4.9384138E-1,8.325534E-2,-3.7174667E-3,1.9114463E-2,-5.150562E-2,4.988545E-2,-4.1819625E-2,-5.0963927E-2,6.2169064E-2,-6.476664E-2,5.3552616E-2,-6.1440583E-2,2.1353269E-2,-6.334928E-2,-2.0812316E-2,4.0327962E-2,-2.1637538E-2,5.996765E-2,3.8338627E-4],"split_indices":[27,1,49,46,49,49,28,20,49,46,44,48,27,27,0,0,0,0,0,0,0,0,0,0,0,0,0,0,0],"split_type":[0,0,0,0,0,0,0,0,0,0,0,0,0,0,0,0,0,0,0,0,0,0,0,0,0,0,0,0,0],"sum_hessian":[6.271376E2,2.1446487E2,4.1267267E2,1.4704767E2,6.741722E1,3.8302527E2,2.9647415E1,3.942681E1,1.0762085E2,2.5954765E1,4.1462452E1,1.1180922E2,2.7121603E2,2.7991745E1,1.655671E0,2.2254915E1,1.7171894E1,1.2356168E0,1.0638523E2,5.6264553E0,2.032831E1,3.1228096E1,1.0234357E1,4.54021E1,6.640712E1,4.5713875E1,2.2550215E2,2.5507833E1,2.4839106E0],"tree_param":{"num_deleted":"0","num_feature":"51","num_nodes":"29","size_leaf_vector":"1"}},{"base_weights":[9.0729096E-4,4.7530264E-1,-3.0928573E-1,1.0794665E0,-4.3966558E-2,-4.4976836E-1,4.263468E-1,1.1960962E0,-4.0532032E-1,-1.2895076E0,1.2681374E-1,-7.27491E-1,-2.4283667E-1,1.0124503E0,-4.542717E-1,3.3646278E-2,6.31029E-2,3.1509247E-2,-5.9865158E-2,9.927978E-3,-7.251021E-2,5.034995E-2,-1.6044015E-2,-3.9331906E-2,4.8647117E-2,-3.4623325E-3,-4.2592987E-2,6.369184E-2,-1.1219733E-2,-5.8232553E-2,1.22378105E-2],"categories":[],"categories_nodes":[],"categories_segments":[],"categories_sizes":[],"default_left":[0,0,0,0,0,0,0,0,0,0,0,0,0,0,0,0,0,0,0,0,0,0,0,0,0,0,0,0,0,0,0],"id":19,"left_children":[1,3,5,7,9,11,13,15,17,19,21,23,25,27,29,-1,-1,-1,-1,-1,-1,-1,-1,-1,-1,-1,-1,-1,-1,-1,-1],"loss_changes":[9.1278755E1,7.6984116E1,3.895155E1,2.0120865E1,2.8421572E1,1.794954E1,3.1764877E1,2.7875519E0,8.139638E0,4.1398277E0,4.6717934E1,1.4259232E1,1.920729E1,1.2159031E1,1.2663278E1,0E0,0E0,0E0,0E0,0E0,0E0,0E0,0E0,0E0,0E0,0E0,0E0,0E0,0E0,0E0,0E0],"parents":[2147483647,0,0,1,1,2,2,3,3,4,4,5,5,6,6,7,7,8,8,9,9,10,10,11,11,12,12,13,13,14,14],"right_children":[2,4,6,8,10,12,14,16,18,20,22,24,26,28,30,-1,-1,-1,-1,-1,-1,-1,-1,-1,-1,-1,-1,-1,-1,-1,-1],"split_conditions":[-2.2832071E-2,-2.8426784E-1,7.6651603E-1,1.4714676E-1,1.6714902E-1,6.4598996E-4,2.9011713E-2,-1.5060712E0,-1.5388007E-1,-2.9475895E-1,2.4316414E-1,5.628752E-1,6.2314564E-1,-2.8952122E-1,1.1952724E0,3.3646278E-2,6.31029E-2,3.1509247E-2,-5.9865158E-2,9.927978E-3,-7.251021E-2,5.034995E-2,-1.6044015E-2,-3.9331906E-2,4.8647117E-2,-3.4623325E-3,-4.2592987E-2,6.369184E-2,-1.1219733E-2,-5.8232553E-2,1.22378105E-2],"split_indices":[27,33,49,28,46,50,27,21,30,28,46,45,46,12,44,0,0,0,0,0,0,0,0,0,0,0,0,0,0,0,0],"split_type":[0,0,0,0,0,0,0,0,0,0,0,0,0,0,0,0,0,0,0,0,0,0,0,0,0,0,0,0,0,0,0],"sum_hessian":[6.1829456E2,2.4423705E2,3.7405753E2,1.1239173E2,1.3184532E2,3.1440472E2,5.96528E1,1.0438662E2,8.005115E0,1.5108051E1,1.1673727E2,1.3316653E2,1.8123817E2,3.5725605E1,2.3927198E1,1.2941778E1,9.144484E1,3.5577312E0,4.4473834E0,1.4495412E0,1.365851E1,3.8936726E1,7.780054E1,1.2920956E2,3.9569726E0,1.4190472E2,3.9333447E1,2.9468105E1,6.2574973E0,1.1536877E1,1.2390323E1],"tree_param":{"num_deleted":"0","num_feature":"51","num_nodes":"31","size_leaf_vector":"1"}},{"base_weights":[1.0206884E-3,3.339354E-1,-4.163295E-1,-2.9249543E-1,9.23725E-1,-9.029683E-1,-1.854102E-1,-3.7518835E-1,8.059439E-2,1.0936937E0,-2.0425616E-1,-5.0305396E-1,-1.2721461E0,4.9240413E-1,-5.169119E-1,-3.795474E-3,-7.155699E-2,5.848374E-2,-3.356577E-2,-4.887195E-2,2.7026847E-2,-4.1918155E-2,5.4896306E-2,1.9283712E-2,-6.6833906E-2,-1.5708975E-2,4.282511E-2,5.726297E-2,-2.8225249E-2],"categories":[],"categories_nodes":[],"categories_segments":[],"categories_sizes":[],"default_left":[0,0,0,0,0,0,0,0,0,0,0,0,0,0,0,0,0,0,0,0,0,0,0,0,0,0,0,0,0],"id":20,"left_children":[1,3,5,7,9,11,13,15,-1,17,19,21,23,25,27,-1,-1,-1,-1,-1,-1,-1,-1,-1,-1,-1,-1,-1,-1],"loss_changes":[8.500624E1,1.2600954E2,3.0339909E1,2.6714504E1,3.3876724E1,1.2220505E1,4.190709E1,5.0363434E1,0E0,2.1263855E1,1.4250481E1,2.42546E1,5.2912292E0,1.8299664E1,1.0533108E1,0E0,0E0,0E0,0E0,0E0,0E0,0E0,0E0,0E0,0E0,0E0,0E0,0E0,0E0],"parents":[2147483647,0,0,1,1,2,2,3,3,4,4,5,5,6,6,7,7,9,9,10,10,11,11,12,12,13,13,14,14],"right_children":[2,4,6,8,10,12,14,16,-1,18,20,22,24,26,28,-1,-1,-1,-1,-1,-1,-1,-1,-1,-1,-1,-1,-1,-1],"split_conditions":[-6.1483025E-3,4.79776E-1,6.1999595E-1,2.710752E-1,7.577232E-2,7.652336E-1,2.2178104E-2,-2.1468212E-1,8.059439E-2,1.7679248E-2,2.7565405E-1,7.484371E-1,2.771298E-1,2.0012823E-3,7.230873E-1,-3.795474E-3,-7.155699E-2,5.848374E-2,-3.356577E-2,-4.887195E-2,2.7026847E-2,-4.1918155E-2,5.4896306E-2,1.9283712E-2,-6.6833906E-2,-1.5708975E-2,4.282511E-2,5.726297E-2,-2.8225249E-2],"split_indices":[27,49,49,48,28,44,27,28,0,47,46,44,45,48,44,0,0,0,0,0,0,0,0,0,0,0,0,0,0],"split_type":[0,0,0,0,0,0,0,0,0,0,0,0,0,0,0,0,0,0,0,0,0,0,0,0,0,0,0,0,0],"sum_hessian":[6.0981024E2,3.3933057E2,2.7047964E2,1.647982E2,1.7453238E2,8.61072E1,1.8437245E2,1.5870963E2,6.0885706E0,1.5170349E2,2.2828897E1,4.2467087E1,4.3640118E1,6.0396225E1,1.2397623E2,1.2449657E2,3.4213062E1,1.4576578E2,5.9376993E0,1.1047711E1,1.1781186E1,3.5506874E1,6.9602118E0,1.4486232E0,4.2191494E1,1.8826694E1,4.156953E1,2.8090115E0,1.2116721E2],"tree_param":{"num_deleted":"0","num_feature":"51","num_nodes":"29","size_leaf_vector":"1"}},{"base_weights":[1.088321E-3,5.120233E-1,-2.562822E-1,1.0935558E0,-5.97649E-3,-3.9487404E-1,4.667669E-1,1.2009002E0,-2.4939378E-1,-1.2498382E0,1.8367973E-1,-2.3083137E-1,-7.353881E-1,7.483397E-1,-1.106543E0,3.934624E-2,6.2559515E-2,3.0517573E-2,-5.396394E-2,-7.055666E-2,-7.402683E-3,4.8048835E-2,-1.4074813E-2,1.5447964E-2,-2.2204632E-2,-3.9762013E-2,4.7257908E-2,-4.5067873E-2,5.687172E-2,-1.3936299E-2,-5.8993865E-2],"categories":[],"categories_nodes":[],"categories_segments":[],"categories_sizes":[],"default_left":[0,0,0,0,0,0,0,0,0,0,0,0,0,0,0,0,0,0,0,0,0,0,0,0,0,0,0,0,0,0,0],"id":21,"left_children":[1,3,5,7,9,11,13,15,17,19,21,23,25,27,29,-1,-1,-1,-1,-1,-1,-1,-1,-1,-1,-1,-1,-1,-1,-1,-1],"loss_changes":[7.936911E1,6.0911663E1,4.0406647E1,1.4031555E1,2.5690605E1,1.8675117E1,2.9631886E1,8.553543E-1,6.2799983E0,2.3514233E0,3.4447567E1,2.6514778E1,1.1738224E1,3.6808086E1,2.948141E-1,0E0,0E0,0E0,0E0,0E0,0E0,0E0,0E0,0E0,0E0,0E0,0E0,0E0,0E0,0E0,0E0],"parents":[2147483647,0,0,1,1,2,2,3,3,4,4,5,5,6,6,7,7,8,8,9,9,10,10,11,11,12,12,13,13,14,14],"right_children":[2,4,6,8,10,12,14,16,18,20,22,24,26,28,30,-1,-1,-1,-1,-1,-1,-1,-1,-1,-1,-1,-1,-1,-1,-1,-1],"split_conditions":[-2.6915263E-2,-2.8080884E-1,7.6651603E-1,1.4714676E-1,1.6714902E-1,-4.8207965E-1,6.3466555E-1,-1.5060712E0,-2.458521E-1,4.0674582E-1,2.4316414E-1,-6.1483025E-3,3.2084197E-1,2.4447115E-1,9.3087286E-2,3.934624E-2,6.2559515E-2,3.0517573E-2,-5.396394E-2,-7.055666E-2,-7.402683E-3,4.8048835E-2,-1.4074813E-2,1.5447964E-2,-2.2204632E-2,-3.9762013E-2,4.7257908E-2,-4.5067873E-2,5.687172E-2,-1.3936299E-2,-5.8993865E-2],"split_indices":[27,33,49,28,46,20,29,21,2,45,46,27,48,45,14,0,0,0,0,0,0,0,0,0,0,0,0,0,0,0,0],"split_type":[0,0,0,0,0,0,0,0,0,0,0,0,0,0,0,0,0,0,0,0,0,0,0,0,0,0,0,0,0,0,0],"sum_hessian":[6.015713E2,2.0118565E2,4.0038562E2,9.425697E1,1.0692869E2,3.363659E2,6.401971E1,8.737843E1,6.8785415E0,1.3407232E1,9.3521454E1,2.2813818E2,1.08227715E2,5.4746216E1,9.273492E0,1.12683E1,7.611013E1,3.50842E0,3.3701215E0,1.1450214E1,1.9570179E0,3.461495E1,5.8906506E1,6.4480736E1,1.6365746E2,1.0501445E2,3.2132607E0,1.0196823E1,4.4549393E1,1.1453409E0,8.128151E0],"tree_param":{"num_deleted":"0","num_feature":"51","num_nodes":"31","size_leaf_vector":"1"}},{"base_weights":[1.1323448E-3,4.9706677E-1,-2.457629E-1,1.0752252E0,-6.100661E-3,-3.279098E-1,8.761363E-1,1.1827544E0,-2.4312228E-1,-1.2184592E0,1.7634232E-1,-6.9706655E-1,-1.7415911E-1,1.0305253E0,-4.918093E-2,3.4735482E-2,6.134684E-2,2.9439567E-2,-5.2878547E-2,2.5480539E-3,-6.708747E-2,4.657574E-2,-1.3398923E-2,-5.9411395E-2,-1.7808111E-2,5.594048E-2,-1.59436E-2,5.8749992E-2,5.4679364E-3],"categories":[],"categories_nodes":[],"categories_segments":[],"categories_sizes":[],"default_left":[0,0,0,0,0,0,0,0,0,0,0,0,0,0,0,0,0,0,0,0,0,0,0,0,0,0,0,0,0],"id":22,"left_children":[1,3,5,7,9,11,13,15,17,19,21,23,25,27,-1,-1,-1,-1,-1,-1,-1,-1,-1,-1,-1,-1,-1,-1,-1],"loss_changes":[7.298413E1,5.7639755E1,3.69627E1,1.335685E1,2.386424E1,2.0965847E1,8.887447E0,9.8934174E-1,5.895376E0,2.2769833E0,3.17261E1,1.781218E1,4.9682648E1,3.3063183E0,0E0,0E0,0E0,0E0,0E0,0E0,0E0,0E0,0E0,0E0,0E0,0E0,0E0,0E0,0E0],"parents":[2147483647,0,0,1,1,2,2,3,3,4,4,5,5,6,6,7,7,8,8,9,9,10,10,11,11,12,12,13,13],"right_children":[2,4,6,8,10,12,14,16,18,20,22,24,26,28,-1,-1,-1,-1,-1,-1,-1,-1,-1,-1,-1,-1,-1,-1,-1],"split_conditions":[-2.6915263E-2,-2.8080884E-1,7.932044E-1,1.4714676E-1,1.6714902E-1,4.7817054E-1,1.1433059E-1,2.844459E-1,-2.458521E-1,-2.9475895E-1,2.4316414E-1,8.325534E-2,4.4356167E-1,1.3760624E-2,-4.918093E-2,3.4735482E-2,6.134684E-2,2.9439567E-2,-5.2878547E-2,2.5480539E-3,-6.708747E-2,4.657574E-2,-1.3398923E-2,-5.9411395E-2,-1.7808111E-2,5.594048E-2,-1.59436E-2,5.8749992E-2,5.4679364E-3],"split_indices":[27,33,49,28,46,49,28,46,2,28,46,48,46,27,0,0,0,0,0,0,0,0,0,0,0,0,0,0,0],"split_type":[0,0,0,0,0,0,0,0,0,0,0,0,0,0,0,0,0,0,0,0,0,0,0,0,0,0,0,0,0],"sum_hessian":[5.9406433E2,1.9711314E2,3.9695123E2,9.119254E1,1.059206E2,3.7052838E2,2.642285E1,8.441057E1,6.7819796E0,1.3111867E1,9.280873E1,1.07907585E2,2.626208E2,2.4809177E1,1.6136721E0,8.395585E0,7.6014984E1,3.4920816E0,3.2898977E0,1.2126657E0,1.1899201E1,3.397239E1,5.8836338E1,4.3192314E1,6.471527E1,2.5757105E1,2.3686368E2,2.1207472E1,3.6017056E0],"tree_param":{"num_deleted":"0","num_feature":"51","num_nodes":"29","size_leaf_vector":"1"}},{"base_weights":[1.261849E-3,3.0636698E-1,-3.7296706E-1,9.8495233E-1,-1.8601555E-1,-8.517837E-1,-1.553747E-1,2.7873206E-1,1.2206469E0,-4.047326E-1,4.1282633E-1,-4.8089337E-1,-1.2087342E0,8.542528E-2,-2.616577E-1,3.5245266E-2,-3.636988E-2,2.9253129E-2,6.365567E-2,1.5678708E-2,-3.387731E-2,3.0642092E-2,-4.513804E-2,-4.0813282E-2,5.213104E-2,1.967814E-2,-6.381932E-2,1.485228E-2,-2.532025E-2],"categories":[],"categories_nodes":[],"categories_segments":[],"categories_sizes":[],"default_left":[0,0,0,0,0,0,0,0,0,0,0,0,0,0,0,0,0,0,0,0,0,0,0,0,0,0,0,0,0],"id":23,"left_children":[1,3,5,7,9,11,13,15,17,19,21,23,25,-1,27,-1,-1,-1,-1,-1,-1,-1,-1,-1,-1,-1,-1,-1,-1],"loss_changes":[6.724645E1,1.0858602E2,2.742669E1,2.2394302E1,2.490291E1,1.0330872E1,3.6717148E1,1.572304E1,2.6602173E0,2.7419603E1,1.3978214E1,2.2353468E1,4.9836464E0,0E0,2.395447E1,0E0,0E0,0E0,0E0,0E0,0E0,0E0,0E0,0E0,0E0,0E0,0E0,0E0,0E0],"parents":[2147483647,0,0,1,1,2,2,3,3,4,4,5,5,6,6,7,7,8,8,9,9,10,10,11,11,12,12,14,14],"right_children":[2,4,6,8,10,12,14,16,18,20,22,24,26,-1,28,-1,-1,-1,-1,-1,-1,-1,-1,-1,-1,-1,-1,-1,-1],"split_conditions":[-6.1483025E-3,-2.9115012E-1,6.153382E-1,-1.4706571E0,4.7817054E-1,7.652336E-1,7.2289735E-1,-3.235323E-2,3.1089994E-1,-1.0171933E-1,4.4719568E-1,7.484371E-1,2.771298E-1,8.542528E-2,2.2178104E-2,3.5245266E-2,-3.636988E-2,2.9253129E-2,6.365567E-2,1.5678708E-2,-3.387731E-2,3.0642092E-2,-4.513804E-2,-4.0813282E-2,5.213104E-2,1.967814E-2,-6.381932E-2,1.485228E-2,-2.532025E-2],"split_indices":[27,33,49,21,49,44,44,34,46,49,46,44,45,0,27,0,0,0,0,0,0,0,0,0,0,0,0,0,0],"split_type":[0,0,0,0,0,0,0,0,0,0,0,0,0,0,0,0,0,0,0,0,0,0,0,0,0,0,0,0,0],"sum_hessian":[5.8695483E2,3.234393E2,2.6351553E2,1.3558296E2,1.8785635E2,8.142453E1,1.8209099E2,3.4472954E1,1.0111001E2,1.3783759E2,5.0018753E1,4.1083664E1,4.0340866E1,9.009891E0,1.730811E2,2.4426037E1,1.0046917E1,8.636602E0,9.2473404E1,3.7899734E1,9.993786E1,4.3881405E1,6.1373496E0,3.4052E1,7.031669E0,1.4391104E0,3.8901756E1,5.265891E1,1.2042219E2],"tree_param":{"num_deleted":"0","num_feature":"51","num_nodes":"29","size_leaf_vector":"1"}},{"base_weights":[1.4573578E-3,4.721154E-1,-2.2794543E-1,7.738287E-1,-4.428341E-1,-3.535353E-1,4.442467E-1,7.930638E-2,1.0905131E0,2.697412E-1,-1.027454E0,-8.9824386E-2,-5.521035E-1,7.158573E-1,-1.0698167E0,-1.13951275E-2,6.6540554E-2,-5.195997E-2,5.685637E-2,-7.436811E-2,3.4847625E-2,3.8631134E-2,-5.6673974E-2,2.4074761E-2,-1.5068965E-2,-2.9012341E-2,6.918078E-2,-4.3637224E-2,5.5231094E-2,-5.72985E-2,-1.2420519E-2],"categories":[],"categories_nodes":[],"categories_segments":[],"categories_sizes":[],"default_left":[0,0,0,0,0,0,0,0,0,0,0,0,0,0,0,0,0,0,0,0,0,0,0,0,0,0,0,0,0,0,0],"id":24,"left_children":[1,3,5,7,9,11,13,15,17,19,21,23,25,27,29,-1,-1,-1,-1,-1,-1,-1,-1,-1,-1,-1,-1,-1,-1,-1,-1],"loss_changes":[6.2757996E1,5.2922256E1,3.3147446E1,3.1497543E1,2.0218887E1,1.7221516E1,2.624691E1,1.8008429E1,1.0965225E1,1.7825663E1,5.934078E0,1.7412868E1,1.10422325E1,3.3780754E1,3.299513E-1,0E0,0E0,0E0,0E0,0E0,0E0,0E0,0E0,0E0,0E0,0E0,0E0,0E0,0E0,0E0,0E0],"parents":[2147483647,0,0,1,1,2,2,3,3,4,4,5,5,6,6,7,7,8,8,9,9,10,10,11,11,12,12,13,13,14,14],"right_children":[2,4,6,8,10,12,14,16,18,20,22,24,26,28,30,-1,-1,-1,-1,-1,-1,-1,-1,-1,-1,-1,-1,-1,-1,-1,-1],"split_conditions":[-2.6915263E-2,1.7679248E-2,7.6651603E-1,2.8944108E-1,-1.0171933E-1,-5.855758E-1,6.3466555E-1,2.710752E-1,2.1397558E-1,3.0610877E-1,-3.9098516E-2,1.0241985E-3,3.2392693E-1,2.4447115E-1,-2.2304328E-1,-1.13951275E-2,6.6540554E-2,-5.195997E-2,5.685637E-2,-7.436811E-2,3.4847625E-2,3.8631134E-2,-5.6673974E-2,2.4074761E-2,-1.5068965E-2,-2.9012341E-2,6.918078E-2,-4.3637224E-2,5.5231094E-2,-5.72985E-2,-1.2420519E-2],"split_indices":[27,47,49,46,49,20,29,48,49,44,34,27,48,45,28,0,0,0,0,0,0,0,0,0,0,0,0,0,0,0,0],"split_type":[0,0,0,0,0,0,0,0,0,0,0,0,0,0,0,0,0,0,0,0,0,0,0,0,0,0,0,0,0,0,0],"sum_hessian":[5.7925586E2,1.8946954E2,3.8978635E2,1.4260005E2,4.6869484E1,3.2882413E2,6.0962215E1,4.5050343E1,9.754971E1,2.1365875E1,2.5503609E1,1.4186757E2,1.8695656E2,5.213654E1,8.825674E0,3.6828007E1,8.222335E0,1.633311E0,9.59164E1,3.6934202E0,1.7672455E1,1.0689025E0,2.4434706E1,3.7991837E1,1.03875725E2,1.8496756E2,1.988985E0,1.0005661E1,4.213088E1,7.7152553E0,1.110419E0],"tree_param":{"num_deleted":"0","num_feature":"51","num_nodes":"31","size_leaf_vector":"1"}},{"base_weights":[1.5068349E-3,2.8132364E-1,-3.602359E-1,-2.7633762E-1,8.512258E-1,-8.626714E-1,-1.5374397E-1,-3.5258925E-1,7.697308E-2,1.0238302E0,-2.2501238E-1,-4.4908777E-1,-1.2151204E0,1.4737449E0,-2.6828536E-1,-6.8812914E-2,-4.3477877E-3,5.499016E-2,-2.625922E-2,-4.7508467E-2,2.4409417E-2,-4.572547E-2,1.0286992E-1,9.759073E-3,-6.788841E-2,8.956654E-2,-4.090832E-2,-6.892033E-2,-6.2441477E-3],"categories":[],"categories_nodes":[],"categories_segments":[],"categories_sizes":[],"default_left":[0,0,0,0,0,0,0,0,0,0,0,0,0,0,0,0,0,0,0,0,0,0,0,0,0,0,0,0,0],"id":25,"left_children":[1,3,5,7,9,11,13,15,-1,17,19,21,23,25,27,-1,-1,-1,-1,-1,-1,-1,-1,-1,-1,-1,-1,-1,-1],"loss_changes":[5.8097767E1,1.0308787E2,2.58396E1,2.3294857E1,3.0008598E1,1.0051559E1,3.369609E1,4.2984177E1,0E0,1.6856323E1,1.2346327E1,4.2752632E1,8.04343E0,1.0127165E1,2.6530735E1,0E0,0E0,0E0,0E0,0E0,0E0,0E0,0E0,0E0,0E0,0E0,0E0,0E0,0E0],"parents":[2147483647,0,0,1,1,2,2,3,3,4,4,5,5,6,6,7,7,9,9,10,10,11,11,12,12,13,13,14,14],"right_children":[2,4,6,8,10,12,14,16,-1,18,20,22,24,26,28,-1,-1,-1,-1,-1,-1,-1,-1,-1,-1,-1,-1,-1,-1],"split_conditions":[-3.7174667E-3,4.79776E-1,6.153382E-1,2.710752E-1,7.577232E-2,4.453328E-1,7.230873E-1,3.0980653E-1,7.697308E-2,1.7679248E-2,2.7565405E-1,4.8158327E-1,6.616254E-1,6.9429153E-1,7.91865E-1,-6.8812914E-2,-4.3477877E-3,5.499016E-2,-2.625922E-2,-4.7508467E-2,2.4409417E-2,-4.572547E-2,1.0286992E-1,9.759073E-3,-6.788841E-2,8.956654E-2,-4.090832E-2,-6.892033E-2,-6.2441477E-3],"split_indices":[27,49,49,48,28,46,44,45,0,47,46,49,44,46,44,0,0,0,0,0,0,0,0,0,0,0,0,0,0],"split_type":[0,0,0,0,0,0,0,0,0,0,0,0,0,0,0,0,0,0,0,0,0,0,0,0,0,0,0,0,0],"sum_hessian":[5.719644E2,3.2262692E2,2.4933748E2,1.6332504E2,1.5930188E2,7.169986E1,1.7763762E2,1.5751622E2,5.808825E0,1.3732649E2,2.1975384E1,3.403521E1,3.7664646E1,1.089973E1,1.6673788E2,3.1591467E1,1.2592475E2,1.3118251E2,6.1439896E0,1.0731608E1,1.1243776E1,2.9240734E1,4.794478E0,3.425895E0,3.423875E1,9.76502E0,1.1347092E0,1.8089499E1,1.4864839E2],"tree_param":{"num_deleted":"0","num_feature":"51","num_nodes":"29","size_leaf_vector":"1"}},{"base_weights":[1.4398561E-3,4.4963753E-1,-2.122138E-1,1.021125E0,-6.784791E-3,-5.170417E-1,3.330898E-2,1.1345811E0,-2.4605313E-1,-1.1593137E0,1.6218007E-1,-3.0542794E-1,-1.1281651E0,6.2558347E-1,-4.2717364E-1,3.4684174E-2,5.965368E-2,2.7437035E-2,-5.130679E-2,-6.645751E-2,-5.7711317E-3,4.4483464E-2,-1.3173759E-2,-3.0382214E-2,5.980755E-2,-6.710341E-2,-4.6857162E-3,4.2175476E-2,-9.725642E-3,-1.6001789E-2,-6.356253E-2],"categories":[],"categories_nodes":[],"categories_segments":[],"categories_sizes":[],"default_left":[0,0,0,0,0,0,0,0,0,0,0,0,0,0,0,0,0,0,0,0,0,0,0,0,0,0,0,0,0,0,0],"id":26,"left_children":[1,3,5,7,9,11,13,15,17,19,21,23,25,27,29,-1,-1,-1,-1,-1,-1,-1,-1,-1,-1,-1,-1,-1,-1,-1,-1],"loss_changes":[5.4230583E1,4.7692314E1,2.8720078E1,1.1950607E1,2.0174473E1,2.1789295E1,5.8457012E1,1.0985489E0,5.2088094E0,2.1948566E0,2.8223866E1,5.9041485E1,9.532864E0,1.691557E1,1.05019E1,0E0,0E0,0E0,0E0,0E0,0E0,0E0,0E0,0E0,0E0,0E0,0E0,0E0,0E0,0E0,0E0],"parents":[2147483647,0,0,1,1,2,2,3,3,4,4,5,5,6,6,7,7,8,8,9,9,10,10,11,11,12,12,13,13,14,14],"right_children":[2,4,6,8,10,12,14,16,18,20,22,24,26,28,30,-1,-1,-1,-1,-1,-1,-1,-1,-1,-1,-1,-1,-1,-1,-1,-1],"split_conditions":[-2.6915263E-2,-2.8080884E-1,6.153382E-1,1.4714676E-1,1.6714902E-1,4.4719568E-1,2.2178104E-2,-1.5060712E0,-2.458521E-1,4.0674582E-1,2.4316414E-1,4.8158327E-1,1.6957475E-2,-2.948516E-1,9.3278503E-1,3.4684174E-2,5.965368E-2,2.7437035E-2,-5.130679E-2,-6.645751E-2,-5.7711317E-3,4.4483464E-2,-1.3173759E-2,-3.0382214E-2,5.980755E-2,-6.710341E-2,-4.6857162E-3,4.2175476E-2,-9.725642E-3,-1.6001789E-2,-6.356253E-2],"split_indices":[27,33,49,28,46,46,27,21,2,45,46,49,47,12,46,0,0,0,0,0,0,0,0,0,0,0,0,0,0,0,0],"split_type":[0,0,0,0,0,0,0,0,0,0,0,0,0,0,0,0,0,0,0,0,0,0,0,0,0,0,0,0,0,0,0],"sum_hessian":[5.643267E2,1.8181497E2,3.8251175E2,8.0181854E1,1.0163312E2,1.7015303E2,2.1235873E2,7.3688805E1,6.493049E0,1.2245292E1,8.9387825E1,1.2750251E2,4.2650517E1,9.2730225E1,1.196285E2,1.0137198E1,6.3551605E1,3.3630936E0,3.1299555E0,1.0296784E1,1.9485071E0,3.2592953E1,5.6794876E1,1.0663573E2,2.0866781E1,3.5096016E1,7.554501E0,7.323956E1,1.9490664E1,1.0737824E2,1.2250261E1],"tree_param":{"num_deleted":"0","num_feature":"51","num_nodes":"31","size_leaf_vector":"1"}},{"base_weights":[1.3269415E-3,-1.0564073E-1,8.379922E-1,3.0747423E-1,-2.790887E-1,1.1517894E-1,1.0677657E0,6.392795E-1,-4.4325757E-1,-1.2070047E-1,-5.8370554E-1,-8.378989E-1,7.5319445E-1,1.1146874E0,5.173613E-2,4.910817E-3,5.2911025E-2,1.2536131E-2,-5.201111E-2,-5.1948577E-2,-1.1550044E-3,-3.5542484E-2,4.309395E-2,2.6511384E-2,-5.8853198E-2,-4.640359E-2,5.38267E-2,4.384301E-4,5.732865E-2,3.1860102E-2,-2.9913677E-2],"categories":[],"categories_nodes":[],"categories_segments":[],"categories_sizes":[],"default_left":[0,0,0,0,0,0,0,0,0,0,0,0,0,0,0,0,0,0,0,0,0,0,0,0,0,0,0,0,0,0,0],"id":27,"left_children":[1,3,5,7,9,11,13,15,17,19,21,23,25,27,29,-1,-1,-1,-1,-1,-1,-1,-1,-1,-1,-1,-1,-1,-1,-1,-1],"loss_changes":[5.0002888E1,3.558262E1,1.039579E1,3.6891712E1,1.6788641E1,1.0602241E1,2.2276535E0,2.3091164E1,1.9167023E1,2.0692816E1,2.253497E1,3.8948817E0,6.6250362E0,1.603981E0,1.5855854E0,0E0,0E0,0E0,0E0,0E0,0E0,0E0,0E0,0E0,0E0,0E0,0E0,0E0,0E0,0E0,0E0],"parents":[2147483647,0,0,1,1,2,2,3,3,4,4,5,5,6,6,7,7,8,8,9,9,10,10,11,11,12,12,13,13,14,14],"right_children":[2,4,6,8,10,12,14,16,18,20,22,24,26,28,30,-1,-1,-1,-1,-1,-1,-1,-1,-1,-1,-1,-1,-1,-1,-1,-1],"split_conditions":[7.8663087E-1,-2.6915263E-2,2.4139282E-1,1.7679248E-2,1.1275455E-1,-1.3906543E0,4.2716292E-1,3.0629775E-1,-1.0171933E-1,2.4447115E-1,1.4712839E0,-3.791818E-2,-1.0656164E-1,-1.6293632E-3,-8.125521E-1,4.910817E-3,5.2911025E-2,1.2536131E-2,-5.201111E-2,-5.1948577E-2,-1.1550044E-3,-3.5542484E-2,4.309395E-2,2.6511384E-2,-5.8853198E-2,-4.640359E-2,5.38267E-2,4.384301E-4,5.732865E-2,3.1860102E-2,-2.9913677E-2],"split_indices":[49,27,45,47,48,21,22,46,49,45,44,27,26,50,9,0,0,0,0,0,0,0,0,0,0,0,0,0,0,0,0],"split_type":[0,0,0,0,0,0,0,0,0,0,0,0,0,0,0,0,0,0,0,0,0,0,0,0,0,0,0,0,0,0,0],"sum_hessian":[5.5672644E2,4.9439212E2,6.233431E1,1.4596437E2,3.4842776E2,1.5397785E1,4.6936523E1,1.0132822E2,4.4636154E1,2.3015358E2,1.1827418E2,6.04876E0,9.349025E0,4.4771797E1,2.1647286E0,4.475783E1,5.6570385E1,2.0909063E1,2.3727093E1,2.1185463E1,2.0896811E2,1.0917971E2,9.094468E0,1.0897171E0,4.959043E0,1.2063109E0,8.1427145E0,1.2903999E0,4.3481396E1,1.1492759E0,1.0154529E0],"tree_param":{"num_deleted":"0","num_feature":"51","num_nodes":"31","size_leaf_vector":"1"}},{"base_weights":[1.3624759E-3,2.6142824E-1,-3.275186E-1,1.1838039E0,-4.453292E-2,-8.003953E-1,-1.3220875E-1,-2.6425684E-2,1.2280258E0,-2.6076224E-1,4.4892836E-1,-3.885689E-1,-1.1743574E0,1.3793397E0,-2.3483531E-1,1.5963798E-2,6.208214E-2,4.0807754E-2,-1.864445E-2,3.464564E-2,-2.4978904E-2,-3.6930222E-2,4.7195572E-2,-6.1137136E-2,1.3372357E-2,8.5122004E-2,-4.021257E-2,-6.755552E-2,-4.5327754E-3],"categories":[],"categories_nodes":[],"categories_segments":[],"categories_sizes":[],"default_left":[0,0,0,0,0,0,0,0,0,0,0,0,0,0,0,0,0,0,0,0,0,0,0,0,0,0,0,0,0],"id":28,"left_children":[1,3,5,7,9,11,13,-1,15,17,19,21,23,25,27,-1,-1,-1,-1,-1,-1,-1,-1,-1,-1,-1,-1,-1,-1],"loss_changes":[4.7256866E1,8.7124146E1,2.242751E1,6.471092E0,2.4940535E1,1.0496223E1,2.7294348E1,0E0,5.347824E-1,1.9913778E1,1.683493E1,1.718008E1,2.892685E0,9.270559E0,2.621817E1,0E0,0E0,0E0,0E0,0E0,0E0,0E0,0E0,0E0,0E0,0E0,0E0,0E0,0E0],"parents":[2147483647,0,0,1,1,2,2,3,3,4,4,5,5,6,6,8,8,9,9,10,10,11,11,12,12,13,13,14,14],"right_children":[2,4,6,8,10,12,14,-1,16,18,20,22,24,26,28,-1,-1,-1,-1,-1,-1,-1,-1,-1,-1,-1,-1,-1,-1],"split_conditions":[-3.7174667E-3,-3.492522E-1,6.1999595E-1,-8.878052E-1,-1.4295578E0,7.652336E-1,7.230873E-1,-2.6425684E-2,-1.5852718E0,-3.7190877E-2,-4.0027744E-1,7.484371E-1,-9.636525E-2,6.9429153E-1,7.91865E-1,1.5963798E-2,6.208214E-2,4.0807754E-2,-1.864445E-2,3.464564E-2,-2.4978904E-2,-3.6930222E-2,4.7195572E-2,-6.1137136E-2,1.3372357E-2,8.5122004E-2,-4.021257E-2,-6.755552E-2,-4.5327754E-3],"split_indices":[27,33,49,28,21,44,44,0,21,34,20,44,26,46,44,0,0,0,0,0,0,0,0,0,0,0,0,0,0],"split_type":[0,0,0,0,0,0,0,0,0,0,0,0,0,0,0,0,0,0,0,0,0,0,0,0,0,0,0,0,0],"sum_hessian":[5.5051245E2,3.0753296E2,2.4297945E2,7.588741E1,2.3164557E2,7.0116936E1,1.7286252E2,1.6347997E0,7.425261E1,1.6139542E2,7.0250145E1,3.4339535E1,3.57774E1,1.0199372E1,1.6266313E2,1.4571152E0,7.2795494E1,1.4627476E1,1.4676794E2,5.6091255E1,1.415889E1,2.7548407E1,6.7911277E0,3.476274E1,1.0146613E0,9.07667E0,1.1227028E0,1.7649033E1,1.450141E2],"tree_param":{"num_deleted":"0","num_feature":"51","num_nodes":"29","size_leaf_vector":"1"}},{"base_weights":[1.4199893E-3,-1.2597904E-1,6.3694644E-1,2.6918453E-1,-2.9934254E-1,9.561389E-1,-3.340542E-1,5.909124E-1,-4.2187667E-1,-1.4381231E-1,-6.258318E-1,2.3897265E-1,1.1359462E0,-1.0680817E0,3.0152458E-1,3.678909E-3,5.128022E-2,1.2269761E-2,-5.0546873E-2,1.4085059E-2,-1.682797E-2,-3.420673E-2,4.453345E-2,-3.488663E-2,4.5755066E-2,-3.4166728E-3,5.7984214E-2,-7.908595E-3,-5.72724E-2,-3.961814E-2,8.384347E-2],"categories":[],"categories_nodes":[],"categories_segments":[],"categories_sizes":[],"default_left":[0,0,0,0,0,0,0,0,0,0,0,0,0,0,0,0,0,0,0,0,0,0,0,0,0,0,0,0,0,0,0],"id":29,"left_children":[1,3,5,7,9,11,13,15,17,19,21,23,25,27,29,-1,-1,-1,-1,-1,-1,-1,-1,-1,-1,-1,-1,-1,-1,-1,-1],"loss_changes":[4.4248714E1,3.1269175E1,2.8604343E1,3.123183E1,1.6002367E1,8.6186905E0,1.1201053E1,2.1400894E1,1.7877216E1,1.7806532E1,9.624001E0,1.0193262E1,1.6474152E0,5.961027E-1,2.1304113E1,0E0,0E0,0E0,0E0,0E0,0E0,0E0,0E0,0E0,0E0,0E0,0E0,0E0,0E0,0E0,0E0],"parents":[2147483647,0,0,1,1,2,2,3,3,4,4,5,5,6,6,7,7,8,8,9,9,10,10,11,11,12,12,13,13,14,14],"right_children":[2,4,6,8,10,12,14,16,18,20,22,24,26,28,30,-1,-1,-1,-1,-1,-1,-1,-1,-1,-1,-1,-1,-1,-1,-1,-1],"split_conditions":[7.6651603E-1,-2.6915263E-2,2.9011713E-2,1.7679248E-2,-4.8207965E-1,-1.4084924E0,1.1952724E0,3.0629775E-1,-1.0171933E-1,-3.7174667E-3,3.2084197E-1,2.4139282E-1,1.20137215E-1,-1.6970621E-1,-1.595718E-2,3.678909E-3,5.128022E-2,1.2269761E-2,-5.0546873E-2,1.4085059E-2,-1.682797E-2,-3.420673E-2,4.453345E-2,-3.488663E-2,4.5755066E-2,-3.4166728E-3,5.7984214E-2,-7.908595E-3,-5.72724E-2,-3.961814E-2,8.384347E-2],"split_indices":[49,27,27,47,20,21,44,46,49,27,48,45,45,42,47,0,0,0,0,0,0,0,0,0,0,0,0,0,0,0,0],"split_type":[0,0,0,0,0,0,0,0,0,0,0,0,0,0,0,0,0,0,0,0,0,0,0,0,0,0,0,0,0,0,0],"sum_hessian":[5.4452246E2,4.5426187E2,9.026057E1,1.3835156E2,3.159103E2,6.794171E1,2.2318853E1,9.450097E1,4.3850594E1,2.1495319E2,1.0095713E2,1.4086474E1,5.3855236E1,1.004149E1,1.2277365E1,4.368271E1,5.0818256E1,2.0833918E1,2.3016676E1,6.68693E1,1.480839E2,9.7748024E1,3.2091079E0,5.8919053E0,8.19457E0,1.0047309E0,5.2850502E1,1.0254592E0,9.01603E0,7.0745034E0,5.2028613E0],"tree_param":{"num_deleted":"0","num_feature":"51","num_nodes":"31","size_leaf_vector":"1"}},{"base_weights":[1.5776295E-3,-1.2069372E-1,6.238932E-1,2.5977454E-1,-2.8618604E-1,9.413085E-1,-3.2306764E-1,5.7057416E-1,-4.0783548E-1,-3.7726264E-2,-4.7518736E-1,2.3208943E-1,1.1224827E0,-1.0498891E0,2.89938E-1,3.50071E-3,5.011783E-2,1.1714324E-2,-4.9371883E-2,2.2259971E-2,-1.1011329E-2,-1.6582496E-2,-4.4580985E-2,-3.3531617E-2,4.4887923E-2,-3.3299194E-3,5.73416E-2,-5.645579E-2,-6.99697E-3,5.7546765E-2,-6.6486225E-2],"categories":[],"categories_nodes":[],"categories_segments":[],"categories_sizes":[],"default_left":[0,0,0,0,0,0,0,0,0,0,0,0,0,0,0,0,0,0,0,0,0,0,0,0,0,0,0,0,0,0,0],"id":30,"left_children":[1,3,5,7,9,11,13,15,17,19,21,23,25,27,29,-1,-1,-1,-1,-1,-1,-1,-1,-1,-1,-1,-1,-1,-1,-1,-1],"loss_changes":[4.108592E1,2.849012E1,2.6955795E1,2.872609E1,1.4773085E1,8.305218E0,1.0553751E1,2.0271729E1,1.6683228E1,1.218729E1,1.0392231E1,9.510692E0,1.6062317E0,6.163616E-1,2.0025583E1,0E0,0E0,0E0,0E0,0E0,0E0,0E0,0E0,0E0,0E0,0E0,0E0,0E0,0E0,0E0,0E0],"parents":[2147483647,0,0,1,1,2,2,3,3,4,4,5,5,6,6,7,7,8,8,9,9,10,10,11,11,12,12,13,13,14,14],"right_children":[2,4,6,8,10,12,14,16,18,20,22,24,26,28,30,-1,-1,-1,-1,-1,-1,-1,-1,-1,-1,-1,-1,-1,-1,-1,-1],"split_conditions":[7.6651603E-1,-2.6915263E-2,2.9011713E-2,1.7679248E-2,-5.855758E-1,-1.4084924E0,1.1952724E0,3.0629775E-1,-1.0171933E-1,1.0241985E-3,1.8968417E-1,2.4139282E-1,1.20137215E-1,-1.1550322E0,1.5106783E0,3.50071E-3,5.011783E-2,1.1714324E-2,-4.9371883E-2,2.2259971E-2,-1.1011329E-2,-1.6582496E-2,-4.4580985E-2,-3.3531617E-2,4.4887923E-2,-3.3299194E-3,5.73416E-2,-5.645579E-2,-6.99697E-3,5.7546765E-2,-6.6486225E-2],"split_indices":[49,27,27,47,20,21,44,46,49,27,29,45,45,5,44,0,0,0,0,0,0,0,0,0,0,0,0,0,0,0,0],"split_type":[0,0,0,0,0,0,0,0,0,0,0,0,0,0,0,0,0,0,0,0,0,0,0,0,0,0,0,0,0,0,0],"sum_hessian":[5.3796545E2,4.5029785E2,8.766758E1,1.363222E2,3.1397565E2,6.566354E1,2.2004036E1,9.3117546E1,4.3204662E1,1.3616878E2,1.7780687E2,1.3825131E1,5.1838417E1,9.741343E0,1.2262693E1,4.3662415E1,4.945513E1,2.0779512E1,2.2425148E1,3.6950985E1,9.92178E1,1.3356544E2,4.4241425E1,5.864609E0,7.9605227E0,1.0053968E0,5.083302E1,8.739558E0,1.0017842E0,8.195461E0,4.067232E0],"tree_param":{"num_deleted":"0","num_feature":"51","num_nodes":"31","size_leaf_vector":"1"}},{"base_weights":[1.5178842E-3,-1.15743175E-1,6.106831E-1,4.6151602E-1,-2.1921085E-1,9.268697E-1,-3.1506345E-1,8.048115E-1,-5.770737E-1,-1.14864655E-1,-6.65312E-1,2.2543418E-1,1.1095141E0,-1.0323976E0,2.7530572E-1,-6.859681E-2,4.840002E-2,3.8513986E-3,-5.5696633E-2,8.264447E-3,-1.6921004E-2,-2.7276298E-2,-8.724887E-2,-3.2235112E-2,4.4034924E-2,-3.2453767E-3,5.6725215E-2,-6.9209198E-3,-5.562076E-2,-3.7693698E-2,7.742313E-2],"categories":[],"categories_nodes":[],"categories_segments":[],"categories_sizes":[],"default_left":[0,0,0,0,0,0,0,0,0,0,0,0,0,0,0,0,0,0,0,0,0,0,0,0,0,0,0,0,0,0,0],"id":31,"left_children":[1,3,5,7,9,11,13,15,17,19,21,23,25,27,29,-1,-1,-1,-1,-1,-1,-1,-1,-1,-1,-1,-1,-1,-1,-1,-1],"loss_changes":[3.8112396E1,2.6825516E1,2.5502048E1,2.4827217E1,1.761712E1,8.007187E0,9.886272E0,1.9718925E1,6.251282E0,1.9424814E1,8.339905E0,8.875467E0,1.5669975E0,5.933075E-1,1.8498665E1,0E0,0E0,0E0,0E0,0E0,0E0,0E0,0E0,0E0,0E0,0E0,0E0,0E0,0E0,0E0,0E0],"parents":[2147483647,0,0,1,1,2,2,3,3,4,4,5,5,6,6,7,7,8,8,9,9,10,10,11,11,12,12,13,13,14,14],"right_children":[2,4,6,8,10,12,14,16,18,20,22,24,26,28,30,-1,-1,-1,-1,-1,-1,-1,-1,-1,-1,-1,-1,-1,-1,-1,-1],"split_conditions":[7.6651603E-1,-3.7249617E-2,2.9011713E-2,1.8245196E-2,-4.0027744E-1,-1.4084924E0,1.1952724E0,1.9682926E-1,1.5013538E-1,-3.7174667E-3,4.8487517E-1,2.4139282E-1,1.20137215E-1,-4.790969E-1,-1.595718E-2,-6.859681E-2,4.840002E-2,3.8513986E-3,-5.5696633E-2,8.264447E-3,-1.6921004E-2,-2.7276298E-2,-8.724887E-2,-3.2235112E-2,4.4034924E-2,-3.2453767E-3,5.6725215E-2,-6.9209198E-3,-5.562076E-2,-3.7693698E-2,7.742313E-2],"split_indices":[49,27,27,47,20,21,44,46,0,27,45,45,45,18,47,0,0,0,0,0,0,0,0,0,0,0,0,0,0,0,0],"split_type":[0,0,0,0,0,0,0,0,0,0,0,0,0,0,0,0,0,0,0,0,0,0,0,0,0,0,0,0,0,0,0],"sum_hessian":[5.315633E2,4.464366E2,8.512668E1,6.7330536E1,3.7910608E2,6.3453175E1,2.1673504E1,5.0773094E1,1.6557446E1,3.082595E2,7.084657E1,1.3570548E1,4.988263E1,9.446591E0,1.22269125E1,3.02438E0,4.7748714E1,7.849834E0,8.707611E0,1.3692697E2,1.7133252E2,6.512626E1,5.720315E0,5.8364058E0,7.7341423E0,1.006043E0,4.8876583E1,1.0003409E0,8.446251E0,6.9868417E0,5.240071E0],"tree_param":{"num_deleted":"0","num_feature":"51","num_nodes":"31","size_leaf_vector":"1"}},{"base_weights":[1.2574568E-3,-1.1112165E-1,5.984428E-1,4.4615152E-1,-2.0951447E-1,9.1277945E-1,-3.0524558E-1,7.8050035E-1,-5.596232E-1,-5.371325E-1,-6.976065E-2,2.1899484E-1,1.0969911E0,-1.0156101E0,2.6544434E-1,-6.646771E-2,4.704466E-2,3.6813207E-3,-5.464716E-2,-4.0700555E-2,-6.41489E-3,1.7063083E-2,-1.5507825E-2,-2.3363976E-2,5.163123E-2,-3.1629817E-3,5.6132596E-2,-6.997558E-3,-5.4807294E-2,5.3305894E-2,-6.357213E-2],"categories":[],"categories_nodes":[],"categories_segments":[],"categories_sizes":[],"default_left":[0,0,0,0,0,0,0,0,0,0,0,0,0,0,0,0,0,0,0,0,0,0,0,0,0,0,0,0,0,0,0],"id":32,"left_children":[1,3,5,7,9,11,13,15,17,19,21,23,25,27,29,-1,-1,-1,-1,-1,-1,-1,-1,-1,-1,-1,-1,-1,-1,-1,-1],"loss_changes":[3.544504E1,2.4467031E1,2.4039719E1,2.297627E1,1.7292015E1,7.7233276E0,9.3247E0,1.8415133E1,5.924729E0,1.2689953E1,2.6434523E1,8.48003E0,1.5295448E0,5.629339E-1,1.7572422E1,0E0,0E0,0E0,0E0,0E0,0E0,0E0,0E0,0E0,0E0,0E0,0E0,0E0,0E0,0E0,0E0],"parents":[2147483647,0,0,1,1,2,2,3,3,4,4,5,5,6,6,7,7,8,8,9,9,10,10,11,11,12,12,13,13,14,14],"right_children":[2,4,6,8,10,12,14,16,18,20,22,24,26,28,30,-1,-1,-1,-1,-1,-1,-1,-1,-1,-1,-1,-1,-1,-1,-1,-1],"split_conditions":[7.6651603E-1,-3.7249617E-2,2.9011713E-2,1.8245196E-2,-1.4797469E0,-1.4084924E0,1.1952724E0,1.9682926E-1,1.5013538E-1,9.991892E-1,-6.1483025E-3,1.3057004E-3,1.20137215E-1,2.6550382E-2,1.5106783E0,-6.646771E-2,4.704466E-2,3.6813207E-3,-5.464716E-2,-4.0700555E-2,-6.41489E-3,1.7063083E-2,-1.5507825E-2,-2.3363976E-2,5.163123E-2,-3.1629817E-3,5.6132596E-2,-6.997558E-3,-5.4807294E-2,5.3305894E-2,-6.357213E-2],"split_indices":[49,27,27,47,21,21,44,46,0,50,27,48,45,6,44,0,0,0,0,0,0,0,0,0,0,0,0,0,0,0,0],"split_type":[0,0,0,0,0,0,0,0,0,0,0,0,0,0,0,0,0,0,0,0,0,0,0,0,0,0,0,0,0,0,0],"sum_hessian":[5.261634E2,4.4351593E2,8.264747E1,6.602604E1,3.774899E2,6.131111E1,2.1336359E1,4.9721233E1,1.6304806E1,1.1202703E2,2.6546286E2,1.3322867E1,4.7988243E1,9.15771E0,1.217865E1,2.9978979E0,4.6723335E1,7.848115E0,8.45669E0,6.620166E1,4.5825367E1,9.781015E1,1.6765273E2,7.457965E0,5.8649025E0,1.0066701E0,4.6981575E1,1.0018988E0,8.155811E0,8.208548E0,3.9701023E0],"tree_param":{"num_deleted":"0","num_feature":"51","num_nodes":"31","size_leaf_vector":"1"}},{"base_weights":[1.0739473E-3,-1.06616534E-1,5.859146E-1,5.243033E-1,-1.8692823E-1,8.987731E-1,-2.9830036E-1,8.647182E-1,-4.6744993E-1,-4.7925642E-1,-4.428341E-2,2.1346536E-1,1.0848684E0,-9.994748E-1,2.524751E-1,-5.5848997E-2,5.0296623E-2,9.281549E-3,-4.8508175E-2,-1.8390967E-2,-5.0188154E-2,3.7148707E-2,-8.302255E-3,-2.2335773E-2,5.0992053E-2,-3.082685E-3,5.556149E-2,-5.4041285E-2,-6.9976235E-3,5.091544E-2,-6.189996E-2],"categories":[],"categories_nodes":[],"categories_segments":[],"categories_sizes":[],"default_left":[0,0,0,0,0,0,0,0,0,0,0,0,0,0,0,0,0,0,0,0,0,0,0,0,0,0,0,0,0,0,0],"id":33,"left_children":[1,3,5,7,9,11,13,15,17,19,21,23,25,27,29,-1,-1,-1,-1,-1,-1,-1,-1,-1,-1,-1,-1,-1,-1,-1,-1],"loss_changes":[3.291217E1,2.2459518E1,2.2747458E1,1.7316898E1,1.6333946E1,7.4550476E0,8.744035E0,1.1658449E1,4.595989E0,7.1428566E0,2.5496593E1,7.970564E0,1.4937248E0,5.3923225E-1,1.6228893E1,0E0,0E0,0E0,0E0,0E0,0E0,0E0,0E0,0E0,0E0,0E0,0E0,0E0,0E0,0E0,0E0],"parents":[2147483647,0,0,1,1,2,2,3,3,4,4,5,5,6,6,7,7,8,8,9,9,10,10,11,11,12,12,13,13,14,14],"right_children":[2,4,6,8,10,12,14,16,18,20,22,24,26,28,30,-1,-1,-1,-1,-1,-1,-1,-1,-1,-1,-1,-1,-1,-1,-1,-1],"split_conditions":[7.6651603E-1,-4.040431E-2,2.9011713E-2,1.8245196E-2,-1.2614104E0,-1.4084924E0,1.1952724E0,1.9682926E-1,-1.0171933E-1,-2.8166878E-1,-3.7190877E-2,1.3057004E-3,1.20137215E-1,-1.4605482E0,1.5106783E0,-5.5848997E-2,5.0296623E-2,9.281549E-3,-4.8508175E-2,-1.8390967E-2,-5.0188154E-2,3.7148707E-2,-8.302255E-3,-2.2335773E-2,5.0992053E-2,-3.082685E-3,5.556149E-2,-5.4041285E-2,-6.9976235E-3,5.091544E-2,-6.189996E-2],"split_indices":[49,27,27,47,39,21,44,46,49,28,34,48,45,23,44,0,0,0,0,0,0,0,0,0,0,0,0,0,0,0,0],"split_type":[0,0,0,0,0,0,0,0,0,0,0,0,0,0,0,0,0,0,0,0,0,0,0,0,0,0,0,0,0,0,0],"sum_hessian":[5.2057477E2,4.403145E2,8.026025E1,4.90957E1,3.912188E2,5.9271847E1,2.0988398E1,3.6645416E1,1.2450282E1,1.2752222E2,2.636966E2,1.3116523E1,4.6155323E1,8.875112E0,1.2113286E1,1.9779848E0,3.466743E1,5.6896E0,6.760682E0,1.0657951E2,2.0942703E1,3.463835E1,2.2905824E2,7.4572687E0,5.6592546E0,1.0072788E0,4.5148045E1,7.87253E0,1.0025811E0,8.211072E0,3.902214E0],"tree_param":{"num_deleted":"0","num_feature":"51","num_nodes":"31","size_leaf_vector":"1"}},{"base_weights":[9.756535E-4,-7.156725E-2,8.1791294E-1,2.6719603E-1,-2.0756498E-1,-2.4651179E-1,9.9012506E-1,9.189258E-1,-4.3821324E-2,-5.500734E-1,-6.432292E-2,-8.7779325E-1,4.2085346E-2,5.4832052E-2,-1.403647E-1,5.3955883E-2,-1.1851055E-2,-5.5987358E-2,5.949532E-3,-5.336213E-2,-1.0409456E-2,5.174095E-2,-9.688982E-3,-1.143066E-5,-5.668068E-2,3.695843E-2,-5.8520485E-2],"categories":[],"categories_nodes":[],"categories_segments":[],"categories_sizes":[],"default_left":[0,0,0,0,0,0,0,0,0,0,0,0,0,0,0,0,0,0,0,0,0,0,0,0,0,0,0],"id":34,"left_children":[1,3,5,7,9,11,13,15,17,19,21,23,-1,-1,25,-1,-1,-1,-1,-1,-1,-1,-1,-1,-1,-1,-1],"loss_changes":[3.0669424E1,2.1953922E1,7.9808273E0,2.7727959E1,1.6632057E1,5.3266354E0,4.5524864E0,8.43539E0,1.6498333E1,1.7467562E1,3.4446667E1,1.0584733E0,0E0,0E0,4.517865E0,0E0,0E0,0E0,0E0,0E0,0E0,0E0,0E0,0E0,0E0,0E0,0E0],"parents":[2147483647,0,0,1,1,2,2,3,3,4,4,5,5,6,6,7,7,8,8,9,9,10,10,11,11,14,14],"right_children":[2,4,6,8,10,12,14,16,18,20,22,24,-1,-1,26,-1,-1,-1,-1,-1,-1,-1,-1,-1,-1,-1,-1],"split_conditions":[7.932044E-1,-2.6915263E-2,1.5933976E-1,-2.8080884E-1,4.7817054E-1,-1.1048851E0,1.3760624E-2,-2.6460692E-1,1.6714902E-1,8.325534E-2,4.4356167E-1,-4.3291986E-1,4.2085346E-2,5.4832052E-2,1.0961439E-1,5.3955883E-2,-1.1851055E-2,-5.5987358E-2,5.949532E-3,-5.336213E-2,-1.0409456E-2,5.174095E-2,-9.688982E-3,-1.143066E-5,-5.668068E-2,3.695843E-2,-5.8520485E-2],"split_indices":[49,27,45,33,49,43,27,20,46,48,46,9,0,0,6,0,0,0,0,0,0,0,0,0,0,0,0],"split_type":[0,0,0,0,0,0,0,0,0,0,0,0,0,0,0,0,0,0,0,0,0,0,0,0,0,0,0],"sum_hessian":[5.1552606E2,4.7431955E2,4.1206528E1,1.3559492E2,3.3872464E2,5.678276E0,3.552825E1,4.3172775E1,9.242214E1,9.904835E1,2.396763E2,3.7159817E0,1.9622941E0,3.2496353E1,3.0318985E0,3.797644E1,5.1963353E0,1.1374882E1,8.1047264E1,3.857468E1,6.0473667E1,2.4517645E1,2.1515865E2,1.0646627E0,2.651319E0,1.7877603E0,1.2441381E0],"tree_param":{"num_deleted":"0","num_feature":"51","num_nodes":"27","size_leaf_vector":"1"}},{"base_weights":[1.0023341E-3,-9.910121E-2,5.6541073E-1,-1.4018835E-1,1.0081319E0,8.782445E-1,-2.8226987E-1,2.9877324E-3,-5.7486653E-1,-2.601335E-1,1.4118631E0,2.761985E-1,1.09711E0,-9.807731E-1,2.5128195E-1,-4.6836585E-3,3.8956676E-2,-3.812711E-2,2.4776885E-2,3.8695667E-2,-5.333904E-2,5.4170075E-3,7.637427E-2,-1.8219963E-2,5.1599424E-2,5.657456E-2,1.5368002E-2,-5.3294357E-2,-7.7933907E-3,-3.5226975E-2,7.057237E-2],"categories":[],"categories_nodes":[],"categories_segments":[],"categories_sizes":[],"default_left":[0,0,0,0,0,0,0,0,0,0,0,0,0,0,0,0,0,0,0,0,0,0,0,0,0,0,0,0,0,0,0],"id":35,"left_children":[1,3,5,7,9,11,13,15,17,19,21,23,25,27,29,-1,-1,-1,-1,-1,-1,-1,-1,-1,-1,-1,-1,-1,-1,-1,-1],"loss_changes":[2.8959295E1,1.9946985E1,2.072348E1,2.6181496E1,8.405866E0,7.160568E0,8.285572E0,2.3887098E1,2.1316925E1,4.6919084E0,1.6527481E0,8.334642E0,7.710266E-1,5.040493E-1,1.5438376E1,0E0,0E0,0E0,0E0,0E0,0E0,0E0,0E0,0E0,0E0,0E0,0E0,0E0,0E0,0E0,0E0],"parents":[2147483647,0,0,1,1,2,2,3,3,4,4,5,5,6,6,7,7,8,8,9,9,10,10,11,11,12,12,13,13,14,14],"right_children":[2,4,6,8,10,12,14,16,18,20,22,24,26,28,30,-1,-1,-1,-1,-1,-1,-1,-1,-1,-1,-1,-1,-1,-1,-1,-1],"split_conditions":[7.6651603E-1,2.9082724E-1,2.9011713E-2,1.1346605E-1,-1.7704675E-2,-1.3849236E0,1.1952724E0,9.725152E-2,1.0112633E-2,-3.8145993E-2,-1.5632883E-1,1.3057004E-3,-2.2620502E-1,-1.1568947E0,-1.595718E-2,-4.6836585E-3,3.8956676E-2,-3.812711E-2,2.4776885E-2,3.8695667E-2,-5.333904E-2,5.4170075E-3,7.637427E-2,-1.8219963E-2,5.1599424E-2,5.657456E-2,1.5368002E-2,-5.3294357E-2,-7.7933907E-3,-3.5226975E-2,7.057237E-2],"split_indices":[49,48,27,48,47,21,44,48,47,34,28,48,12,5,47,0,0,0,0,0,0,0,0,0,0,0,0,0,0,0,0],"split_type":[0,0,0,0,0,0,0,0,0,0,0,0,0,0,0,0,0,0,0,0,0,0,0,0,0,0,0,0,0,0,0],"sum_hessian":[5.1056866E2,4.343557E2,7.621297E1,4.196565E2,1.4699203E1,5.56423E1,2.0570665E1,3.1642444E2,1.0323206E2,3.6352494E0,1.1063953E1,1.5438015E1,4.0204285E1,8.545312E0,1.2025353E1,2.8216324E2,3.4261196E1,8.8076996E1,1.5155068E1,1.6108587E0,2.0243907E0,1.0592306E0,1.0004723E1,8.63606E0,6.8019557E0,3.811237E1,2.0919144E0,7.4812603E0,1.0640519E0,6.808655E0,5.216698E0],"tree_param":{"num_deleted":"0","num_feature":"51","num_nodes":"31","size_leaf_vector":"1"}},{"base_weights":[1.3240635E-3,-3.216161E-1,1.7493056E-1,-3.8284752E-1,7.106697E-2,7.2831285E-1,-1.7598821E-1,-1.2243899E0,-1.2696235E-1,9.16646E-1,-2.6701224E-1,1.4894439E0,-2.4012911E-1,-6.499871E-2,-2.9326951E-2,-2.7021054E-2,2.811259E-2,5.61046E-2,7.5749666E-3,-4.5027856E-2,2.086085E-2,9.46594E-2,-4.7213794E-3,-5.482861E-2,-3.1487984E-3],"categories":[],"categories_nodes":[],"categories_segments":[],"categories_sizes":[],"default_left":[0,0,0,0,0,0,0,0,0,0,0,0,0,0,0,0,0,0,0,0,0,0,0,0,0],"id":36,"left_children":[1,3,5,7,-1,9,11,13,15,17,19,21,23,-1,-1,-1,-1,-1,-1,-1,-1,-1,-1,-1,-1],"loss_changes":[2.8518194E1,1.952449E1,6.4370514E1,3.7011425E1,0E0,2.4345612E1,2.2069073E1,1.1721725E0,3.8337418E1,1.6860481E1,9.579321E0,5.0875645E0,2.97551E1,0E0,0E0,0E0,0E0,0E0,0E0,0E0,0E0,0E0,0E0,0E0,0E0],"parents":[2147483647,0,0,1,1,2,2,3,3,5,5,6,6,7,7,8,8,9,9,10,10,11,11,12,12],"right_children":[2,4,6,8,-1,10,12,14,16,18,20,22,24,-1,-1,-1,-1,-1,-1,-1,-1,-1,-1,-1,-1],"split_conditions":[4.79776E-1,2.710752E-1,-3.7174667E-3,3.1583917E-1,7.106697E-2,7.577232E-2,4.453328E-1,3.0980653E-1,-3.7248498E-1,4.839499E-1,2.7565405E-1,-4.968933E-1,6.153382E-1,-6.499871E-2,-2.9326951E-2,-2.7021054E-2,2.811259E-2,5.61046E-2,7.5749666E-3,-4.5027856E-2,2.086085E-2,9.46594E-2,-4.7213794E-3,-5.482861E-2,-3.1487984E-3],"split_indices":[49,48,27,45,0,28,46,45,28,45,46,28,49,0,0,0,0,0,0,0,0,0,0,0,0],"split_type":[0,0,0,0,0,0,0,0,0,0,0,0,0,0,0,0,0,0,0,0,0,0,0,0,0],"sum_hessian":[5.0666394E2,1.768457E2,3.2981824E2,1.7159769E2,5.248016E0,1.2757037E2,2.0224788E2,3.9128593E1,1.3246909E2,1.0733898E2,2.0231388E1,6.6762486E0,1.9557162E2,3.4055077E1,5.0735154E0,8.2933365E1,4.953573E1,8.425071E1,2.3088274E1,1.0340603E1,9.890784E0,5.164481E0,1.5117673E0,3.2630455E1,1.6294118E2],"tree_param":{"num_deleted":"0","num_feature":"51","num_nodes":"25","size_leaf_vector":"1"}},{"base_weights":[1.3928799E-3,-3.0972204E-1,1.6872416E-1,-7.244872E-1,-5.4389272E-2,7.105984E-1,-1.6800995E-1,1.807968E-1,-1.1256459E0,9.604599E-1,-2.1826212E-1,8.974009E-1,-2.5693777E-1,1.4189501E0,-2.2978593E-1,-7.335341E-2,3.764906E-2,8.494772E-3,-6.281705E-2,6.2015872E-2,-4.1847182E-3,-4.6795473E-2,9.783971E-3,5.531481E-2,7.2320946E-3,-4.345676E-2,1.9998835E-2,9.005042E-2,-4.5840563E-3,-5.3655993E-2,-2.9951714E-3],"categories":[],"categories_nodes":[],"categories_segments":[],"categories_sizes":[],"default_left":[0,0,0,0,0,0,0,0,0,0,0,0,0,0,0,0,0,0,0,0,0,0,0,0,0,0,0,0,0,0,0],"id":37,"left_children":[1,3,5,7,9,11,13,15,17,19,21,23,25,27,29,-1,-1,-1,-1,-1,-1,-1,-1,-1,-1,-1,-1,-1,-1,-1,-1],"loss_changes":[2.6146465E1,1.8563112E1,5.9710464E1,2.448109E1,1.8470978E1,2.2887463E1,2.0151585E1,2.1271832E1,8.080368E0,4.618804E0,2.8509548E1,1.6397224E1,8.818587E0,4.618719E0,2.7946045E1,0E0,0E0,0E0,0E0,0E0,0E0,0E0,0E0,0E0,0E0,0E0,0E0,0E0,0E0,0E0,0E0],"parents":[2147483647,0,0,1,1,2,2,3,3,4,4,5,5,6,6,7,7,8,8,9,9,10,10,11,11,12,12,13,13,14,14],"right_children":[2,4,6,8,10,12,14,16,18,20,22,24,26,28,30,-1,-1,-1,-1,-1,-1,-1,-1,-1,-1,-1,-1,-1,-1,-1,-1],"split_conditions":[4.79776E-1,7.829749E-2,-3.7174667E-3,-1.0171933E-1,2.4316414E-1,7.577232E-2,4.453328E-1,3.0610877E-1,-3.710518E-2,-3.180013E-1,3.025724E-1,4.839499E-1,2.7565405E-1,-4.968933E-1,6.153382E-1,-7.335341E-2,3.764906E-2,8.494772E-3,-6.281705E-2,6.2015872E-2,-4.1847182E-3,-4.6795473E-2,9.783971E-3,5.531481E-2,7.2320946E-3,-4.345676E-2,1.9998835E-2,9.005042E-2,-4.5840563E-3,-5.3655993E-2,-2.9951714E-3],"split_indices":[49,48,27,49,46,28,46,44,34,29,46,45,46,28,49,0,0,0,0,0,0,0,0,0,0,0,0,0,0,0,0],"split_type":[0,0,0,0,0,0,0,0,0,0,0,0,0,0,0,0,0,0,0,0,0,0,0,0,0,0,0,0,0,0,0],"sum_hessian":[5.0024048E2,1.7465598E2,3.255845E2,6.585044E1,1.0880554E2,1.243575E2,2.0122699E2,2.038883E1,4.546161E1,1.4450978E1,9.435456E1,1.0429393E2,2.006357E1,6.716552E0,1.9451044E2,4.8518224E0,1.5537007E1,4.138452E0,4.1323154E1,1.1248304E1,3.2026737E0,3.4054157E1,6.0300407E1,8.127106E1,2.3022871E1,1.0218034E1,9.845535E0,5.2073283E0,1.5092232E0,3.172144E1,1.62789E2],"tree_param":{"num_deleted":"0","num_feature":"51","num_nodes":"31","size_leaf_vector":"1"}},{"base_weights":[1.3502142E-3,-9.002326E-2,5.33964E-1,4.8805428E-1,-1.6028167E-1,8.4830135E-1,-2.687161E-1,8.210251E-1,-4.4447905E-1,-4.4689617E-1,-1.9640835E-2,2.4441361E-1,1.0793291E0,-9.6370274E-1,2.4874224E-1,-5.211196E-2,4.793584E-2,8.444938E-3,-4.66471E-2,-1.6968425E-2,-4.8063297E-2,-1.5619315E-2,1.2685283E-2,-1.8682195E-2,5.06826E-2,5.585446E-2,1.2761416E-2,-5.2544672E-2,-7.1772835E-3,4.827128E-2,-5.9107598E-2],"categories":[],"categories_nodes":[],"categories_segments":[],"categories_sizes":[],"default_left":[0,0,0,0,0,0,0,0,0,0,0,0,0,0,0,0,0,0,0,0,0,0,0,0,0,0,0,0,0,0,0],"id":38,"left_children":[1,3,5,7,9,11,13,15,17,19,21,23,25,27,29,-1,-1,-1,-1,-1,-1,-1,-1,-1,-1,-1,-1,-1,-1,-1,-1],"loss_changes":[2.41226E1,1.7262285E1,1.8541494E1,1.4678416E1,1.5228333E1,7.0464935E0,7.8583326E0,9.804129E0,3.9858885E0,6.5532017E0,2.0454138E1,7.8866453E0,8.85128E-1,5.1037407E-1,1.4409379E1,0E0,0E0,0E0,0E0,0E0,0E0,0E0,0E0,0E0,0E0,0E0,0E0,0E0,0E0,0E0,0E0],"parents":[2147483647,0,0,1,1,2,2,3,3,4,4,5,5,6,6,7,7,8,8,9,9,10,10,11,11,12,12,13,13,14,14],"right_children":[2,4,6,8,10,12,14,16,18,20,22,24,26,28,30,-1,-1,-1,-1,-1,-1,-1,-1,-1,-1,-1,-1,-1,-1,-1,-1],"split_conditions":[7.6651603E-1,-4.040431E-2,2.9011713E-2,1.8245196E-2,-1.2614104E0,-1.3849236E0,1.1952724E0,1.9682926E-1,-1.0171933E-1,-2.8166878E-1,4.872036E-1,1.3057004E-3,-2.2620502E-1,-1.766763E-4,1.5106783E0,-5.211196E-2,4.793584E-2,8.444938E-3,-4.66471E-2,-1.6968425E-2,-4.8063297E-2,-1.5619315E-2,1.2685283E-2,-1.8682195E-2,5.06826E-2,5.585446E-2,1.2761416E-2,-5.2544672E-2,-7.1772835E-3,4.827128E-2,-5.9107598E-2],"split_indices":[49,27,27,47,39,21,44,46,49,28,49,48,12,47,44,0,0,0,0,0,0,0,0,0,0,0,0,0,0,0,0],"split_type":[0,0,0,0,0,0,0,0,0,0,0,0,0,0,0,0,0,0,0,0,0,0,0,0,0,0,0,0,0,0,0],"sum_hessian":[4.9368112E2,4.2209833E2,7.1582825E1,4.509724E1,3.7700107E2,5.139802E1,2.0184801E1,3.3319675E1,1.1777563E1,1.233817E2,2.5361937E2,1.4791692E1,3.660633E1,8.2466E0,1.1938201E1,1.840768E0,3.1478907E1,5.5112023E0,6.266361E0,1.0342148E2,1.9960222E1,1.2239518E2,1.312242E2,8.486964E0,6.304727E0,3.4662575E1,1.9437541E0,7.199854E0,1.0467464E0,8.17096E0,3.7672408E0],"tree_param":{"num_deleted":"0","num_feature":"51","num_nodes":"31","size_leaf_vector":"1"}},{"base_weights":[1.1937765E-3,-8.626662E-2,5.228407E-1,-1.2446715E-1,9.596417E-1,8.354484E-1,-2.6341328E-1,9.305096E-3,-5.3622323E-1,-3.311089E-1,1.3332137E0,2.3798311E-1,1.0695962E0,-9.490732E-1,2.371061E-1,-4.3213824E-3,3.8164046E-2,-3.627742E-2,2.0758642E-2,-5.033306E-2,3.552754E-2,-1.2643333E-2,7.523449E-2,-1.7836036E-2,5.011588E-2,5.543339E-2,1.2401687E-2,-5.192812E-2,-6.3823755E-3,-2.8948953E-2,7.293035E-2],"categories":[],"categories_nodes":[],"categories_segments":[],"categories_sizes":[],"default_left":[0,0,0,0,0,0,0,0,0,0,0,0,0,0,0,0,0,0,0,0,0,0,0,0,0,0,0,0,0,0,0],"id":39,"left_children":[1,3,5,7,9,11,13,15,17,19,21,23,25,27,29,-1,-1,-1,-1,-1,-1,-1,-1,-1,-1,-1,-1,-1,-1,-1,-1],"loss_changes":[2.2416794E1,1.6932365E1,1.7560637E1,2.241556E1,7.646592E0,6.8409233E0,7.3738565E0,2.2302927E1,1.8275013E1,3.6391788E0,3.586403E0,7.433472E0,8.8552094E-1,5.282459E-1,1.3645174E1,0E0,0E0,0E0,0E0,0E0,0E0,0E0,0E0,0E0,0E0,0E0,0E0,0E0,0E0,0E0,0E0],"parents":[2147483647,0,0,1,1,2,2,3,3,4,4,5,5,6,6,7,7,8,8,9,9,10,10,11,11,12,12,13,13,14,14],"right_children":[2,4,6,8,10,12,14,16,18,20,22,24,26,28,30,-1,-1,-1,-1,-1,-1,-1,-1,-1,-1,-1,-1,-1,-1,-1,-1],"split_conditions":[7.6651603E-1,2.9082724E-1,2.9011713E-2,1.1346605E-1,-1.8018048E-2,-1.3849236E0,1.1952724E0,9.725152E-2,9.673932E-3,-5.107262E-2,-1.5809268E-1,1.3057004E-3,-2.2620502E-1,-4.6446964E-1,-1.5711458E-2,-4.3213824E-3,3.8164046E-2,-3.627742E-2,2.0758642E-2,-5.033306E-2,3.552754E-2,-1.2643333E-2,7.523449E-2,-1.7836036E-2,5.011588E-2,5.543339E-2,1.2401687E-2,-5.192812E-2,-6.3823755E-3,-2.8948953E-2,7.293035E-2],"split_indices":[49,48,27,48,47,21,44,48,47,6,28,48,12,13,47,0,0,0,0,0,0,0,0,0,0,0,0,0,0,0,0],"split_type":[0,0,0,0,0,0,0,0,0,0,0,0,0,0,0,0,0,0,0,0,0,0,0,0,0,0,0,0,0,0,0],"sum_hessian":[4.89355E2,4.1980438E2,6.955064E1,4.0586176E2,1.394261E1,4.9719883E1,1.9830755E1,3.070757E2,9.878605E1,3.1550567E0,1.0787553E1,1.4566789E1,3.5153095E1,7.9896216E0,1.1841135E1,2.7326453E2,3.3811184E1,8.258855E1,1.6197504E1,1.9342363E0,1.2208204E0,1.0061786E0,9.781374E0,8.492412E0,6.074377E0,3.3223595E1,1.9295009E0,6.9663405E0,1.0232809E0,7.4139094E0,4.427225E0],"tree_param":{"num_deleted":"0","num_feature":"51","num_nodes":"31","size_leaf_vector":"1"}},{"base_weights":[1.4855677E-3,-2.9377383E-1,1.5834235E-1,-7.0545447E-1,-4.840219E-2,5.4655683E-1,-2.658079E-1,1.8701996E-1,-1.1306511E0,9.270926E-1,-2.0180592E-1,9.889605E-1,2.3807827E-1,-1.9269021E-1,-5.8508605E-2,-5.3075444E-2,4.52138E-2,4.601713E-3,-6.255954E-2,6.0250908E-2,-3.6713593E-3,-4.5285784E-2,9.698028E-3,5.5235136E-2,1.2427704E-2,-8.597747E-3,3.537164E-2,4.0296E-2,-1.3886258E-2],"categories":[],"categories_nodes":[],"categories_segments":[],"categories_sizes":[],"default_left":[0,0,0,0,0,0,0,0,0,0,0,0,0,0,0,0,0,0,0,0,0,0,0,0,0,0,0,0,0],"id":40,"left_children":[1,3,5,7,9,11,13,15,17,19,21,23,25,27,-1,-1,-1,-1,-1,-1,-1,-1,-1,-1,-1,-1,-1,-1,-1],"loss_changes":[2.2590471E1,1.7060528E1,5.2596428E1,2.4165539E1,1.6214859E1,2.2506596E1,9.884849E0,1.996935E1,6.437332E0,4.18532E0,2.6187733E1,5.565048E0,1.927037E1,1.2337821E1,0E0,0E0,0E0,0E0,0E0,0E0,0E0,0E0,0E0,0E0,0E0,0E0,0E0,0E0,0E0],"parents":[2147483647,0,0,1,1,2,2,3,3,4,4,5,5,6,6,7,7,8,8,9,9,10,10,11,11,12,12,13,13],"right_children":[2,4,6,8,10,12,14,16,18,20,22,24,26,28,-1,-1,-1,-1,-1,-1,-1,-1,-1,-1,-1,-1,-1,-1,-1],"split_conditions":[4.7817054E-1,7.829749E-2,1.5181096E-2,-1.0171933E-1,2.4316414E-1,-3.7190877E-2,9.3278503E-1,1.6714902E-1,-3.710518E-2,-3.180013E-1,3.025724E-1,2.520155E-3,-1.2112715E0,-5.161107E-1,-5.8508605E-2,-5.3075444E-2,4.52138E-2,4.601713E-3,-6.255954E-2,6.0250908E-2,-3.6713593E-3,-4.5285784E-2,9.698028E-3,5.5235136E-2,1.2427704E-2,-8.597747E-3,3.537164E-2,4.0296E-2,-1.3886258E-2],"split_indices":[49,48,27,49,46,34,46,46,34,29,46,27,39,12,0,0,0,0,0,0,0,0,0,0,0,0,0,0,0],"split_type":[0,0,0,0,0,0,0,0,0,0,0,0,0,0,0,0,0,0,0,0,0,0,0,0,0,0,0,0,0],"sum_hessian":[4.857692E2,1.6822949E2,3.175397E2,6.212392E1,1.0610557E2,1.6564252E2,1.5189719E2,2.02274E1,4.189652E1,1.3733122E1,9.237245E1,6.714326E1,9.849926E1,1.4165729E2,1.02399E1,7.2052503E0,1.302215E1,3.780971E0,3.8115547E1,1.0587673E1,3.1454482E0,3.278053E1,5.959192E1,5.7640697E1,9.50256E0,5.2910076E1,4.5589188E1,1.045078E1,1.3120651E2],"tree_param":{"num_deleted":"0","num_feature":"51","num_nodes":"29","size_leaf_vector":"1"}},{"base_weights":[1.4811644E-3,-2.1714139E-1,2.0203207E-1,3.8785172E-1,-3.2148108E-1,7.0969725E-1,-1.4389242E-1,7.4779993E-1,-4.7479576E-1,-8.130338E-1,-1.4579163E-1,1.1180674E0,1.2219251E-1,-5.804175E-1,2.195233E-2,-4.5952022E-2,4.4465322E-2,3.0251358E-2,-3.4787994E-2,-7.21509E-3,-5.443852E-2,1.8237246E-2,-1.6152136E-2,6.547431E-2,4.0824365E-2,2.403107E-2,-2.855255E-2,-6.6269436E-3,-4.7479983E-2,3.800194E-2,-9.453165E-3],"categories":[],"categories_nodes":[],"categories_segments":[],"categories_sizes":[],"default_left":[0,0,0,0,0,0,0,0,0,0,0,0,0,0,0,0,0,0,0,0,0,0,0,0,0,0,0,0,0,0,0],"id":41,"left_children":[1,3,5,7,9,11,13,15,17,19,21,23,25,27,29,-1,-1,-1,-1,-1,-1,-1,-1,-1,-1,-1,-1,-1,-1,-1,-1],"loss_changes":[2.1124807E1,1.4676268E1,4.4231354E1,1.1024681E1,1.690824E1,2.4336163E1,1.0892425E1,6.6276016E0,2.9807284E0,9.375103E0,1.3371835E1,2.397606E0,1.094679E1,6.7215652E0,1.7255615E1,0E0,0E0,0E0,0E0,0E0,0E0,0E0,0E0,0E0,0E0,0E0,0E0,0E0,0E0,0E0,0E0],"parents":[2147483647,0,0,1,1,2,2,3,3,4,4,5,5,6,6,7,7,8,8,9,9,10,10,11,11,12,12,13,13,14,14],"right_children":[2,4,6,8,10,12,14,16,18,20,22,24,26,28,30,-1,-1,-1,-1,-1,-1,-1,-1,-1,-1,-1,-1,-1,-1,-1,-1],"split_conditions":[-1.4295578E0,-4.0854942E-2,-3.7174667E-3,1.8245196E-2,3.0771497E-1,-3.026875E-2,6.366513E-1,1.9682926E-1,-3.386409E-1,2.4316414E-1,-2.2832071E-2,5.0650258E-2,-2.7905193E-1,7.878556E-1,6.86445E-1,-4.5952022E-2,4.4465322E-2,3.0251358E-2,-3.4787994E-2,-7.21509E-3,-5.443852E-2,1.8237246E-2,-1.6152136E-2,6.547431E-2,4.0824365E-2,2.403107E-2,-2.855255E-2,-6.6269436E-3,-4.7479983E-2,3.800194E-2,-9.453165E-3],"split_indices":[21,27,27,47,46,34,49,46,15,46,27,22,29,44,49,0,0,0,0,0,0,0,0,0,0,0,0,0,0,0,0],"split_type":[0,0,0,0,0,0,0,0,0,0,0,0,0,0,0,0,0,0,0,0,0,0,0,0,0,0,0,0,0,0,0],"sum_hessian":[4.7980646E2,2.2952081E2,2.5028566E2,3.33618E1,1.9615901E2,1.0100423E2,1.4928142E2,2.3633589E1,9.728214E0,5.0694824E1,1.4546419E2,5.9053505E1,4.1950726E1,4.0411995E1,1.0886943E2,1.4194027E0,2.2214186E1,1.3572735E0,8.370941E0,1.5245034E1,3.5449787E1,3.7215252E1,1.0824894E2,3.408011E1,2.4973394E1,2.785534E1,1.4095386E1,1.887388E1,2.1538115E1,2.3626677E1,8.524275E1],"tree_param":{"num_deleted":"0","num_feature":"51","num_nodes":"31","size_leaf_vector":"1"}},{"base_weights":[1.4552451E-3,-2.803476E-1,1.5075862E-1,-6.8794316E-1,-4.1350517E-2,5.2304935E-1,-2.4731071E-1,1.7212489E-1,-1.1076651E0,1.6203074E-1,-7.4106675E-1,9.66627E-1,2.2617386E-1,-1.7650893E-1,-5.746275E-2,-6.878E-2,3.5540596E-2,4.3824636E-3,-6.1451938E-2,4.4451293E-2,-2.1965591E-2,-4.527667E-2,6.458366E-2,5.432455E-2,1.2354607E-2,-7.893457E-3,3.356336E-2,2.7840687E-2,-1.4295011E-2],"categories":[],"categories_nodes":[],"categories_segments":[],"categories_sizes":[],"default_left":[0,0,0,0,0,0,0,0,0,0,0,0,0,0,0,0,0,0,0,0,0,0,0,0,0,0,0,0,0],"id":42,"left_children":[1,3,5,7,9,11,13,15,17,19,21,23,25,27,-1,-1,-1,-1,-1,-1,-1,-1,-1,-1,-1,-1,-1,-1,-1],"loss_changes":[2.007096E1,1.6065601E1,4.634046E1,2.2212034E1,1.5092397E1,2.1042141E1,9.463664E0,1.8379671E1,6.074959E0,3.638595E1,9.150856E0,5.2879944E0,1.6861593E1,1.15130825E1,0E0,0E0,0E0,0E0,0E0,0E0,0E0,0E0,0E0,0E0,0E0,0E0,0E0,0E0,0E0],"parents":[2147483647,0,0,1,1,2,2,3,3,4,4,5,5,6,6,7,7,8,8,9,9,10,10,11,11,12,12,13,13],"right_children":[2,4,6,8,10,12,14,16,18,20,22,24,26,28,-1,-1,-1,-1,-1,-1,-1,-1,-1,-1,-1,-1,-1,-1,-1],"split_conditions":[4.7817054E-1,7.829749E-2,1.5181096E-2,-1.0171933E-1,4.738436E-1,-3.7190877E-2,9.3278503E-1,3.0610877E-1,-3.710518E-2,1.1346605E-1,3.5096037E-1,2.520155E-3,-1.2112715E0,-6.7022246E-1,-5.746275E-2,-6.878E-2,3.5540596E-2,4.3824636E-3,-6.1451938E-2,4.4451293E-2,-2.1965591E-2,-4.527667E-2,6.458366E-2,5.432455E-2,1.2354607E-2,-7.893457E-3,3.356336E-2,2.7840687E-2,-1.4295011E-2],"split_indices":[49,48,27,49,45,34,46,44,34,48,46,27,39,33,0,0,0,0,0,0,0,0,0,0,0,0,0,0,0],"split_type":[0,0,0,0,0,0,0,0,0,0,0,0,0,0,0,0,0,0,0,0,0,0,0,0,0,0,0,0,0],"sum_hessian":[4.7503366E2,1.6421263E2,3.1082104E2,6.0002834E1,1.042098E2,1.6044879E2,1.5037224E2,1.9872087E1,4.0130745E1,8.133671E1,2.2873096E1,6.3425434E1,9.702336E1,1.40536E2,9.836246E0,4.7296143E0,1.5142473E1,3.7249072E0,3.6405838E1,3.660481E1,4.47319E1,2.1674004E1,1.1990929E0,5.393128E1,9.494156E0,5.243007E1,4.4593292E1,1.771181E1,1.2282419E2],"tree_param":{"num_deleted":"0","num_feature":"51","num_nodes":"29","size_leaf_vector":"1"}},{"base_weights":[1.3884305E-3,-2.0645346E-1,1.925218E-1,3.80395E-1,-3.0615434E-1,6.823335E-1,-1.305602E-1,7.24025E-1,-4.4723374E-1,-7.8744566E-1,-1.3672571E-1,1.0877575E0,1.1788244E-1,-5.564886E-1,2.8851034E-2,-4.4463716E-2,4.3101173E-2,6.2709018E-3,-4.476533E-2,-7.120413E-3,-5.300296E-2,-1.1165476E-2,4.2186227E-2,6.3822374E-2,3.937467E-2,-2.4074692E-2,2.5991792E-2,-6.338101E-3,-4.6049323E-2,2.9521896E-2,-1.1267851E-2],"categories":[],"categories_nodes":[],"categories_segments":[],"categories_sizes":[],"default_left":[0,0,0,0,0,0,0,0,0,0,0,0,0,0,0,0,0,0,0,0,0,0,0,0,0,0,0,0,0,0,0],"id":43,"left_children":[1,3,5,7,9,11,13,15,17,19,21,23,25,27,29,-1,-1,-1,-1,-1,-1,-1,-1,-1,-1,-1,-1,-1,-1,-1,-1],"loss_changes":[1.87185E1,1.3324036E1,3.893307E1,9.773556E0,1.5671814E1,2.2233791E1,1.0115339E1,6.078738E0,2.772231E0,8.67186E0,1.24410715E1,2.2100143E0,1.0361612E1,6.235998E0,1.5720259E1,0E0,0E0,0E0,0E0,0E0,0E0,0E0,0E0,0E0,0E0,0E0,0E0,0E0,0E0,0E0,0E0],"parents":[2147483647,0,0,1,1,2,2,3,3,4,4,5,5,6,6,7,7,8,8,9,9,10,10,11,11,12,12,13,13,14,14],"right_children":[2,4,6,8,10,12,14,16,18,20,22,24,26,28,30,-1,-1,-1,-1,-1,-1,-1,-1,-1,-1,-1,-1,-1,-1,-1,-1],"split_conditions":[-1.4295578E0,-4.0854942E-2,-3.7174667E-3,1.8245196E-2,3.0771497E-1,-3.026875E-2,6.366513E-1,1.9682926E-1,1.5013538E-1,2.4316414E-1,-1.0420888E-1,5.0650258E-2,3.4504297E-1,7.878556E-1,5.734241E-1,-4.4463716E-2,4.3101173E-2,6.2709018E-3,-4.476533E-2,-7.120413E-3,-5.300296E-2,-1.1165476E-2,4.2186227E-2,6.3822374E-2,3.937467E-2,-2.4074692E-2,2.5991792E-2,-6.338101E-3,-4.6049323E-2,2.9521896E-2,-1.1267851E-2],"split_indices":[21,27,27,47,46,34,49,46,0,46,26,22,49,44,46,0,0,0,0,0,0,0,0,0,0,0,0,0,0,0,0],"split_type":[0,0,0,0,0,0,0,0,0,0,0,0,0,0,0,0,0,0,0,0,0,0,0,0,0,0,0,0,0,0,0],"sum_hessian":[4.6919528E2,2.2473462E2,2.4446066E2,3.222718E1,1.9250745E2,9.671816E1,1.4774251E2,2.2860655E1,9.366524E0,4.9173622E1,1.4333382E2,5.57488E1,4.0969364E1,3.955778E1,1.08184715E2,1.3723867E0,2.1488268E1,4.427776E0,4.938748E0,1.5060646E1,3.4112976E1,1.3241266E2,1.092116E1,3.223857E1,2.3510227E1,1.636647E1,2.4602892E1,1.8773014E1,2.0784767E1,3.3299053E1,7.4885666E1],"tree_param":{"num_deleted":"0","num_feature":"51","num_nodes":"31","size_leaf_vector":"1"}},{"base_weights":[1.3490772E-3,-2.6379144E-1,1.4414218E-1,-3.2180223E-1,6.739973E-2,4.3506977E-1,-3.241019E-1,-6.1151754E-2,-1.15261294E-1,8.667715E-1,2.0681363E-1,-4.1345817E-1,5.5077606E-1,-2.374068E-2,2.2018965E-2,5.37045E-2,1.0806558E-2,1.6304584E-2,-5.474442E-2,-8.292775E-3,-4.6818864E-2,-5.076034E-2,6.633135E-2],"categories":[],"categories_nodes":[],"categories_segments":[],"categories_sizes":[],"default_left":[0,0,0,0,0,0,0,0,0,0,0,0,0,0,0,0,0,0,0,0,0,0,0],"id":44,"left_children":[1,3,5,7,-1,9,11,-1,13,15,17,19,21,-1,-1,-1,-1,-1,-1,-1,-1,-1,-1],"loss_changes":[1.767837E1,1.5716403E1,4.1483242E1,2.937689E1,0E0,1.830767E1,9.364416E0,0E0,2.620378E1,8.478321E0,1.9615477E1,1.3648678E1,1.5026815E1,0E0,0E0,0E0,0E0,0E0,0E0,0E0,0E0,0E0,0E0],"parents":[2147483647,0,0,1,1,2,2,3,3,5,5,6,6,8,8,9,9,10,10,11,11,12,12],"right_children":[2,4,6,8,-1,10,12,-1,14,16,18,20,22,-1,-1,-1,-1,-1,-1,-1,-1,-1,-1],"split_conditions":[4.79776E-1,2.710752E-1,2.2178104E-2,3.0980653E-1,6.739973E-2,-3.8078308E-2,5.628752E-1,-6.1151754E-2,-3.7248498E-1,1.001358E-2,6.310147E-1,1.8380453E-1,4.25944E-3,-2.374068E-2,2.2018965E-2,5.37045E-2,1.0806558E-2,1.6304584E-2,-5.474442E-2,-8.292775E-3,-4.6818864E-2,-5.076034E-2,6.633135E-2],"split_indices":[49,48,27,45,0,34,45,0,28,27,46,32,48,0,0,0,0,0,0,0,0,0,0],"split_type":[0,0,0,0,0,0,0,0,0,0,0,0,0,0,0,0,0,0,0,0,0,0,0],"sum_hessian":[4.6493338E2,1.624487E2,3.0248468E2,1.5757756E2,4.8711286E0,1.8661107E2,1.1587362E2,2.8462242E1,1.2911533E2,6.3574677E1,1.23036385E2,1.0561406E2,1.0259557E1,7.8478035E1,5.063729E1,4.7718834E1,1.585584E1,1.133952E2,9.641182E0,7.25695E1,3.3044556E1,3.2967882E0,6.9627686E0],"tree_param":{"num_deleted":"0","num_feature":"51","num_nodes":"23","size_leaf_vector":"1"}},{"base_weights":[1.2407739E-3,-1.9830298E-1,1.8569611E-1,3.6279872E-1,-2.9212862E-1,6.589968E-1,-1.1751204E-1,6.966315E-1,-4.3644762E-1,-7.622632E-1,-1.2935036E-1,1.0263278E0,5.7833828E-2,-5.3463167E-1,3.687943E-2,-4.3295667E-2,4.1590538E-2,2.9224953E-2,-3.268846E-2,-7.059216E-3,-5.1651247E-2,-1.0542713E-2,4.007694E-2,5.6716364E-2,2.3648899E-2,4.471171E-2,-1.5470191E-2,-3.139056E-2,4.8090298E-2,3.532553E-2,-8.063856E-3],"categories":[],"categories_nodes":[],"categories_segments":[],"categories_sizes":[],"default_left":[0,0,0,0,0,0,0,0,0,0,0,0,0,0,0,0,0,0,0,0,0,0,0,0,0,0,0,0,0,0,0],"id":45,"left_children":[1,3,5,7,9,11,13,15,17,19,21,23,25,27,29,-1,-1,-1,-1,-1,-1,-1,-1,-1,-1,-1,-1,-1,-1,-1,-1],"loss_changes":[1.7002914E1,1.1788171E1,3.4526215E1,8.905069E0,1.4492622E1,2.0672611E1,9.4969635E0,5.604538E0,2.6257849E0,8.066092E0,1.1005911E1,2.9425545E0,1.1539546E1,6.1562223E0,1.4490151E1,0E0,0E0,0E0,0E0,0E0,0E0,0E0,0E0,0E0,0E0,0E0,0E0,0E0,0E0,0E0,0E0],"parents":[2147483647,0,0,1,1,2,2,3,3,4,4,5,5,6,6,7,7,8,8,9,9,10,10,11,11,12,12,13,13,14,14],"right_children":[2,4,6,8,10,12,14,16,18,20,22,24,26,28,30,-1,-1,-1,-1,-1,-1,-1,-1,-1,-1,-1,-1,-1,-1,-1,-1],"split_conditions":[-1.4295578E0,-4.0854942E-2,-3.7174667E-3,1.8245196E-2,3.0771497E-1,-2.9308321E-2,6.366513E-1,1.9682926E-1,-3.386409E-1,2.4316414E-1,-1.0420888E-1,4.27764E-1,-2.5899062E-1,5.546089E-1,6.86445E-1,-4.3295667E-2,4.1590538E-2,2.9224953E-2,-3.268846E-2,-7.059216E-3,-5.1651247E-2,-1.0542713E-2,4.007694E-2,5.6716364E-2,2.3648899E-2,4.471171E-2,-1.5470191E-2,-3.139056E-2,4.8090298E-2,3.532553E-2,-8.063856E-3],"split_indices":[21,27,27,47,46,34,49,46,15,46,26,45,2,46,49,0,0,0,0,0,0,0,0,0,0,0,